{"learner":{"attributes":{"best_iteration":"36","best_score":"0.4360859435737917","scikit_learn":"{\"_estimator_type\": \"classifier\"}"},"feature_names":["f_spread","f_dspread_60s","f_obi_l1","f_log_mid","f_lomn_abs_std","f_lomn_signed","f_dt_prev_cand","f_realvar_60s","f_bipower_60s","f_realkurt_60s","f_jump_ratio","f_volume_pm5s","f_signed_flow_pm5s","f_n_trades_pm5s"],"feature_types":[],"gradient_booster":{"model":{"cats":{"enc":[],"feature_segments":[],"sorted_idx":[]},"gbtree_model_param":{"num_parallel_tree":"1","num_trees":"57"},"iteration_indptr":[0,1,2,3,4,5,6,7,8,9,10,11,12,13,14,15,16,17,18,19,20,21,22,23,24,25,26,27,28,29,30,31,32,33,34,35,36,37,38,39,40,41,42,43,44,45,46,47,48,49,50,51,52,53,54,55,56,57],"tree_info":[0,0,0,0,0,0,0,0,0,0,0,0,0,0,0,0,0,0,0,0,0,0,0,0,0,0,0,0,0,0,0,0,0,0,0,0,0,0,0,0,0,0,0,0,0,0,0,0,0,0,0,0,0,0,0,0,0],"trees":[{"base_weights":[-5.278843E-3,-9.733751E-1,1.6167241E0,-1.2752943E0,3.1690118E-1,1.8426934E-1,1.7130698E0,-1.7614015E0,-8.829336E-1,-1.1028513E0,7.0921904E-1,-6.1486937E-2,9.804996E-1,1.2170088E0,1.863971E0,-8.956825E-2,-1.3641558E-2,-2.1618514E-4,-5.4129075E-2,1.6121242E-2,-7.731294E-2,4.216033E-2,-2.9212838E-2,7.385615E-2,-1.3641558E-2,6.79253E-2,-2.2232868E-2,9.471538E-2,1.6121242E-2],"categories":[],"categories_nodes":[],"categories_segments":[],"categories_sizes":[],"default_left":[0,0,0,0,0,0,0,0,0,0,0,0,0,0,0,0,0,0,0,0,0,0,0,0,0,0,0,0,0],"id":0,"left_children":[1,3,5,7,9,11,13,15,17,19,21,-1,23,25,27,-1,-1,-1,-1,-1,-1,-1,-1,-1,-1,-1,-1,-1,-1],"loss_changes":[3.5170517E2,5.504367E1,1.1238281E1,2.0161652E1,1.6042505E1,8.407372E0,3.5943604E0,1.734726E0,1.1399181E1,4.4945803E0,4.318391E0,0E0,3.2964106E0,5.5766907E0,2.1096497E0,0E0,0E0,0E0,0E0,0E0,0E0,0E0,0E0,0E0,0E0,0E0,0E0,0E0,0E0],"parents":[2147483647,0,0,1,1,2,2,3,3,4,4,5,5,6,6,7,7,8,8,9,9,10,10,12,12,13,13,14,14],"right_children":[2,4,6,8,10,12,14,16,18,20,22,-1,24,26,28,-1,-1,-1,-1,-1,-1,-1,-1,-1,-1,-1,-1,-1,-1],"split_conditions":[3.4343193E0,1.56267E2,2.3264E1,2.2978652E0,2.286405E0,4.0774283E0,8.6177E1,5.1208E1,1.0699481E0,-1.00347E2,5.72E2,-6.1486937E-2,9.029789E0,7.7088E1,1.1146948E1,-8.956825E-2,-1.3641558E-2,-2.1618514E-4,-5.4129075E-2,1.6121242E-2,-7.731294E-2,4.216033E-2,-2.9212838E-2,7.385615E-2,-1.3641558E-2,6.79253E-2,-2.2232868E-2,9.471538E-2,1.6121242E-2],"split_indices":[4,11,11,4,4,4,11,12,10,12,6,0,9,11,3,0,0,0,0,0,0,0,0,0,0,0,0,0,0],"split_type":[0,0,0,0,0,0,0,0,0,0,0,0,0,0,0,0,0,0,0,0,0,0,0,0,0,0,0,0,0],"sum_hessian":[2.219775E2,1.3925983E2,8.271766E1,1.1286217E2,2.6397663E1,5.3964534E0,7.7321205E1,4.885055E1,6.401161E1,5.32305E0,2.1074614E1,1.7479161E0,3.6485374E0,2.0149206E1,5.7171997E1,4.768724E1,1.1633112E0,1.2041419E1,5.1970192E1,1.3278134E0,3.9952369E0,1.9411898E1,1.6627159E0,2.4852262E0,1.1633112E0,1.8736193E1,1.4130136E0,5.5844185E1,1.3278134E0],"tree_param":{"num_deleted":"0","num_feature":"14","num_nodes":"29","size_leaf_vector":"1"}},{"base_weights":[6.552936E-2,-8.63099E-1,1.6294695E0,-1.3831803E0,-2.027068E-1,5.4245627E-1,1.7330865E0,-1.6881373E0,-5.0892174E-1,-6.054717E-1,8.4054804E-1,1.098615E0,-3.9188076E-2,1.7667035E0,4.7000325E-3,-8.697751E-2,-1.6079796E-2,1.8951256E-2,-4.8398443E-2,-4.2287927E-2,2.421678E-2,-1.8044492E-2,5.7680022E-2,-5.424599E-3,7.940471E-2,2.7316062E-2,8.942672E-2],"categories":[],"categories_nodes":[],"categories_segments":[],"categories_sizes":[],"default_left":[0,0,0,0,0,0,0,0,0,0,0,0,0,0,0,0,0,0,0,0,0,0,0,0,0,0,0],"id":1,"left_children":[1,3,5,7,9,11,13,15,17,19,21,23,-1,25,-1,-1,-1,-1,-1,-1,-1,-1,-1,-1,-1,-1,-1],"loss_changes":[3.2538025E2,4.8016357E1,8.459564E0,2.0068481E1,2.7032911E1,7.291616E0,4.007065E0,3.4989166E0,9.224701E0,1.2487793E1,7.186718E0,4.0476146E0,0E0,9.985962E-1,0E0,0E0,0E0,0E0,0E0,0E0,0E0,0E0,0E0,0E0,0E0,0E0,0E0],"parents":[2147483647,0,0,1,1,2,2,3,3,4,4,5,5,6,6,7,7,8,8,9,9,10,10,11,11,13,13],"right_children":[2,4,6,8,10,12,14,16,18,20,22,24,-1,26,-1,-1,-1,-1,-1,-1,-1,-1,-1,-1,-1,-1,-1],"split_conditions":[3.4343193E0,4.2E2,3.6218E1,2.3032973E0,2.851671E0,9.191684E0,1.1146948E1,3.1998496E0,4.5583706E0,1.093E3,1.1133E2,3.780919E0,-3.9188076E-2,3.4711912E0,4.7000325E-3,-8.697751E-2,-1.6079796E-2,1.8951256E-2,-4.8398443E-2,-4.2287927E-2,2.421678E-2,-1.8044492E-2,5.7680022E-2,-5.424599E-3,7.940471E-2,2.7316062E-2,8.942672E-2],"split_indices":[4,13,11,5,4,9,3,4,9,13,11,4,0,4,0,0,0,0,0,0,0,0,0,0,0,0,0],"split_type":[0,0,0,0,0,0,0,0,0,0,0,0,0,0,0,0,0,0,0,0,0,0,0,0,0,0,0],"sum_hessian":[2.2207344E2,1.396192E2,8.245424E1,7.7494865E1,6.2124332E1,7.7183704E0,7.473587E1,5.6763725E1,2.073114E1,4.512338E1,1.7000954E1,5.5588465E0,2.159524E0,7.315758E1,1.5782909E0,5.4442497E1,2.3212295E0,7.12445E0,1.360669E1,3.715514E1,7.968237E0,3.482593E0,1.3518361E1,1.8283341E0,3.7305124E0,1.7430542E0,7.141452E1],"tree_param":{"num_deleted":"0","num_feature":"14","num_nodes":"27","size_leaf_vector":"1"}},{"base_weights":[1.8698664E-2,-6.760821E-1,9.7950596E-1,1.4438596E0,-1.0153784E0,5.4874486E-1,1.7008629E0,1.5624756E0,1.5353686E-2,-1.2463591E0,1.1530389E0,1.4791895E0,-1.9404128E-1,2.492243E-2,1.7243676E0,2.4772642E-2,8.547308E-2,-7.187246E-2,-2.0256376E-2,7.115155E-2,-8.670832E-3,4.1644927E-2,8.005959E-2,-4.459929E-2,2.3128502E-2,2.492243E-2,8.747083E-2],"categories":[],"categories_nodes":[],"categories_segments":[],"categories_sizes":[],"default_left":[0,0,0,0,0,0,0,0,0,0,0,0,0,0,0,0,0,0,0,0,0,0,0,0,0,0,0],"id":2,"left_children":[1,3,5,7,9,11,13,15,-1,17,19,21,23,-1,25,-1,-1,-1,-1,-1,-1,-1,-1,-1,-1,-1,-1],"loss_changes":[1.505417E2,9.561438E1,2.8471481E1,2.0109406E0,5.8244614E1,4.2255947E1,1.2698364E-1,1.7380028E0,0E0,1.5972015E1,4.3430576E0,8.0109787E-1,1.6292982E1,0E0,1.6682434E-1,0E0,0E0,0E0,0E0,0E0,0E0,0E0,0E0,0E0,0E0,0E0,0E0],"parents":[2147483647,0,0,1,1,2,2,3,3,4,4,5,5,6,6,7,7,9,9,10,10,11,11,12,12,14,14],"right_children":[2,4,6,8,10,12,14,16,-1,18,20,22,24,-1,26,-1,-1,-1,-1,-1,-1,-1,-1,-1,-1,-1,-1],"split_conditions":[5.89E2,-3.7777793E0,3.4474864E0,7.275958E-12,3.4693217E0,-2.8770294E0,1.10451975E1,4.3137956E-7,1.5353686E-2,2.4854267E0,7.8408194E-1,1.106426E1,1.99414E2,2.492243E-2,2.4595077E0,2.4772642E-2,8.547308E-2,-7.187246E-2,-2.0256376E-2,7.115155E-2,-8.670832E-3,4.1644927E-2,8.005959E-2,-4.459929E-2,2.3128502E-2,2.492243E-2,8.747083E-2],"split_indices":[13,5,5,1,5,5,3,7,0,5,2,3,11,0,9,0,0,0,0,0,0,0,0,0,0,0,0],"split_type":[0,0,0,0,0,0,0,0,0,0,0,0,0,0,0,0,0,0,0,0,0,0,0,0,0,0,0],"sum_hessian":[2.2352159E2,1.2989095E2,9.3630646E1,1.7471653E1,1.12419304E2,5.9725838E1,3.3904804E1,1.5481766E1,1.9898869E0,1.01981415E2,1.0437887E1,2.6073582E1,3.3652256E1,1.0758294E0,3.2828976E1,2.403643E0,1.3078122E1,8.252638E1,1.9455027E1,8.612132E0,1.8257556E0,5.383278E0,2.0690304E1,1.6138926E1,1.7513329E1,1.0758294E0,3.1753147E1],"tree_param":{"num_deleted":"0","num_feature":"14","num_nodes":"27","size_leaf_vector":"1"}},{"base_weights":[-4.3430742E-2,-9.2428225E-1,1.4408432E0,-1.1532598E0,4.4918227E-1,9.168168E-1,1.6153381E0,-1.425383E0,-5.5668E-1,-8.070626E-1,7.716627E-1,-9.249153E-1,1.1950505E0,1.6403466E0,2.352024E-2,-3.781869E-2,-7.9877645E-2,3.0837273E-2,-3.468286E-2,2.899151E-2,-6.814715E-2,7.1364805E-2,2.194877E-2,-1.3308689E-2,-5.6229252E-2,-1.687176E-2,6.512819E-2,2.3771515E-2,8.266674E-2],"categories":[],"categories_nodes":[],"categories_segments":[],"categories_sizes":[],"default_left":[0,0,0,0,0,0,0,0,0,0,0,0,0,0,0,0,0,0,0,0,0,0,0,0,0,0,0,0,0],"id":3,"left_children":[1,3,5,7,9,11,13,15,17,19,21,23,25,27,-1,-1,-1,-1,-1,-1,-1,-1,-1,-1,-1,-1,-1,-1,-1],"loss_changes":[2.9796582E2,4.5488617E1,6.281372E0,1.9149017E1,9.191976E0,1.3156977E1,1.0142517E0,8.434845E0,6.8765945E0,4.4981728E0,3.1563215E0,1.808033E-1,3.877821E0,1.3139343E-1,0E0,0E0,0E0,0E0,0E0,0E0,0E0,0E0,0E0,0E0,0E0,0E0,0E0,0E0,0E0],"parents":[2147483647,0,0,1,1,2,2,3,3,4,4,5,5,6,6,7,7,8,8,9,9,10,10,11,11,12,12,13,13],"right_children":[2,4,6,8,10,12,14,16,18,20,22,24,26,28,-1,-1,-1,-1,-1,-1,-1,-1,-1,-1,-1,-1,-1,-1,-1],"split_conditions":[3.4343193E0,9.21E2,4.0774283E0,2.2970822E0,2.37033E0,3.2589E1,1.1146275E1,-1.7811E1,9.9617195E-1,-5.4881E1,1.6319046E-6,1.3666E1,9.778488E-1,8.6523485E-1,2.352024E-2,-3.781869E-2,-7.9877645E-2,3.0837273E-2,-3.468286E-2,2.899151E-2,-6.814715E-2,7.1364805E-2,2.194877E-2,-1.3308689E-2,-5.6229252E-2,-1.687176E-2,6.512819E-2,2.3771515E-2,8.266674E-2],"split_indices":[4,13,4,5,4,11,3,12,10,12,7,11,10,10,0,0,0,0,0,0,0,0,0,0,0,0,0,0,0],"split_type":[0,0,0,0,0,0,0,0,0,0,0,0,0,0,0,0,0,0,0,0,0,0,0,0,0,0,0,0,0],"sum_hessian":[2.258842E2,1.4199417E2,8.389003E1,1.2184164E2,2.0152533E1,2.2518549E1,6.137148E1,8.272039E1,3.9121243E1,3.8095386E0,1.6342993E1,2.6503909E0,1.9868158E1,5.9636154E1,1.7353249E0,1.8034813E1,6.468558E1,3.723243E0,3.5398003E1,1.0776854E0,2.7318532E0,4.393815E0,1.1949179E1,1.1591719E0,1.4912189E0,1.1622982E0,1.870586E1,1.0722255E0,5.856393E1],"tree_param":{"num_deleted":"0","num_feature":"14","num_nodes":"29","size_leaf_vector":"1"}},{"base_weights":[-1.219224E-2,-6.286216E-1,9.4924676E-1,1.0840046E0,-9.5588714E-1,5.4764855E-1,1.5438516E0,3.7043694E-2,1.36115E0,-1.151122E0,1.0067824E0,1.3670934E0,-2.9734958E-2,1.5888916E0,1.17702065E-2,5.634008E-2,-3.406917E-2,7.490374E-2,8.996095E-3,-6.915371E-2,-2.9512016E-2,1.6072311E-3,6.260135E-2,7.1573645E-2,9.877424E-3,-4.0497836E-2,2.19892E-2,8.072718E-2,2.0726232E-2],"categories":[],"categories_nodes":[],"categories_segments":[],"categories_sizes":[],"default_left":[0,0,0,0,0,0,0,0,0,0,0,0,0,0,0,0,0,0,0,0,0,0,0,0,0,0,0,0,0],"id":4,"left_children":[1,3,5,7,9,11,13,15,17,19,21,23,25,27,-1,-1,-1,-1,-1,-1,-1,-1,-1,-1,-1,-1,-1,-1,-1],"loss_changes":[1.3244933E2,7.7353065E1,2.0004341E1,6.424082E0,4.5166954E1,2.5431274E1,1.6679077E0,5.2291017E0,2.5795288E0,1.2834106E1,2.5709372E0,1.3890457E0,1.22476E1,3.3455658E-1,0E0,0E0,0E0,0E0,0E0,0E0,0E0,0E0,0E0,0E0,0E0,0E0,0E0,0E0,0E0],"parents":[2147483647,0,0,1,1,2,2,3,3,4,4,5,5,6,6,7,7,8,8,9,9,10,10,11,11,12,12,13,13],"right_children":[2,4,6,8,10,12,14,16,18,20,22,24,26,28,-1,-1,-1,-1,-1,-1,-1,-1,-1,-1,-1,-1,-1,-1,-1],"split_conditions":[6.61E2,-3.3734632E0,3.4474864E0,2.04E2,3.4693217E0,-2.8770294E0,1.1146948E1,-5.5763845E0,9.914E0,2.2970822E0,2.409E0,1.27719195E-5,-2.3526593E-1,3.273992E1,1.17702065E-2,5.634008E-2,-3.406917E-2,7.490374E-2,8.996095E-3,-6.915371E-2,-2.9512016E-2,1.6072311E-3,6.260135E-2,7.1573645E-2,9.877424E-3,-4.0497836E-2,2.19892E-2,8.072718E-2,2.0726232E-2],"split_indices":[13,5,5,13,5,5,3,5,12,5,12,7,2,9,0,0,0,0,0,0,0,0,0,0,0,0,0,0,0],"split_type":[0,0,0,0,0,0,0,0,0,0,0,0,0,0,0,0,0,0,0,0,0,0,0,0,0,0,0,0,0],"sum_hessian":[2.2147624E2,1.3516255E2,8.631369E1,2.1313538E1,1.13849014E2,5.266476E1,3.364893E1,4.6983676E0,1.6615171E1,1.0392469E2,9.924326E0,2.1203789E1,3.1460974E1,3.2321995E1,1.326935E0,1.6409051E0,3.0574627E0,1.4648878E1,1.9662929E0,7.248336E1,3.144133E1,2.2225723E0,7.701753E0,1.9885218E1,1.3185704E0,1.1547263E1,1.991371E1,3.126426E1,1.057736E0],"tree_param":{"num_deleted":"0","num_feature":"14","num_nodes":"29","size_leaf_vector":"1"}},{"base_weights":[2.0055845E-2,-7.841344E-1,1.3438946E0,-1.4209279E0,-3.7858704E-1,5.062158E-1,1.4824795E0,5.351904E-3,-1.4678829E0,-6.967931E-1,5.4329383E-1,8.5117877E-1,-6.211488E-1,1.0668023E0,1.5657818E0,-1.3466722E-2,-7.470808E-2,-6.6805236E-2,-2.2019157E-2,-5.703355E-3,4.187173E-2,-1.0096127E-2,6.981034E-2,-5.215446E-2,-5.198935E-4,6.382427E-2,-3.0035792E-2,7.970957E-2,3.3030547E-2],"categories":[],"categories_nodes":[],"categories_segments":[],"categories_sizes":[],"default_left":[0,0,0,0,0,0,0,0,0,0,0,0,0,0,0,0,0,0,0,0,0,0,0,0,0,0,0,0,0],"id":5,"left_children":[1,3,5,7,9,11,13,-1,15,17,19,21,23,25,27,-1,-1,-1,-1,-1,-1,-1,-1,-1,-1,-1,-1,-1,-1],"loss_changes":[2.4305559E2,3.614444E1,9.264694E0,4.096077E0,2.623442E1,5.8819313E0,8.749237E-1,0E0,1.277359E0,1.0224449E1,4.5772862E0,6.573683E0,9.692514E-1,6.15473E0,4.66568E-1,0E0,0E0,0E0,0E0,0E0,0E0,0E0,0E0,0E0,0E0,0E0,0E0,0E0,0E0],"parents":[2147483647,0,0,1,1,2,2,3,3,4,4,5,5,6,6,8,8,9,9,10,10,11,11,12,12,13,13,14,14],"right_children":[2,4,6,8,10,12,14,-1,16,18,20,22,24,26,28,-1,-1,-1,-1,-1,-1,-1,-1,-1,-1,-1,-1,-1,-1],"split_conditions":[3.4343193E0,2.2978652E0,4.7207E1,-1.00347E2,1.56267E2,9.100878E0,8.6177E1,5.351904E-3,2.5682173E0,3.7582268E-7,1.1078023E1,3.7877042E0,8.7438883E-7,8.0636E1,2.5784411E0,-1.3466722E-2,-7.470808E-2,-6.6805236E-2,-2.2019157E-2,-5.703355E-3,4.187173E-2,-1.0096127E-2,6.981034E-2,-5.215446E-2,-5.198935E-4,6.382427E-2,-3.0035792E-2,7.970957E-2,3.3030547E-2],"split_indices":[4,4,11,12,11,9,11,0,9,8,3,4,7,11,10,0,0,0,0,0,0,0,0,0,0,0,0,0,0],"split_type":[0,0,0,0,0,0,0,0,0,0,0,0,0,0,0,0,0,0,0,0,0,0,0,0,0,0,0,0,0],"sum_hessian":[2.2631322E2,1.410422E2,8.527101E1,5.3901672E1,8.714054E1,1.276507E1,7.250594E1,1.5688868E0,5.2332787E1,6.496181E1,2.2178734E1,9.961828E0,2.803242E0,1.440946E1,5.809648E1,1.3641497E0,5.0968636E1,1.7390627E1,4.757118E1,7.0454354E0,1.5133299E1,3.612086E0,6.349742E0,1.2392324E0,1.5640094E0,1.3008232E1,1.4012285E0,5.5590527E1,2.5059533E0],"tree_param":{"num_deleted":"0","num_feature":"14","num_nodes":"29","size_leaf_vector":"1"}},{"base_weights":[3.4351718E-2,-7.927318E-1,1.1130872E0,-1.0112464E0,4.6897513E-1,6.104753E-1,1.4393938E0,-1.2912776E0,-3.8227236E-1,-5.6301784E-2,6.8909717E-1,5.732368E-3,1.1844518E0,-1.9483278E-2,7.416868E-2,-1.9932998E-2,-7.034203E-2,3.3841692E-3,-5.211667E-2,-1.6167793E-2,5.1312894E-2,-3.278578E-2,1.2246748E-2,3.8721345E-2,7.361018E-2],"categories":[],"categories_nodes":[],"categories_segments":[],"categories_sizes":[],"default_left":[0,0,0,0,0,0,0,0,0,0,0,0,0,0,0,0,0,0,0,0,0,0,0,0,0],"id":6,"left_children":[1,3,5,7,9,11,13,15,17,-1,19,21,23,-1,-1,-1,-1,-1,-1,-1,-1,-1,-1,-1,-1],"loss_changes":[1.9803172E2,3.511815E1,1.49169235E1,1.8427254E1,7.528621E0,1.3755998E1,5.2164154E0,7.0632477E0,1.0321142E1,0E0,6.312813E0,3.374425E0,1.2594166E0,0E0,0E0,0E0,0E0,0E0,0E0,0E0,0E0,0E0,0E0,0E0,0E0],"parents":[2147483647,0,0,1,1,2,2,3,3,4,4,5,5,6,6,7,7,8,8,10,10,11,11,12,12],"right_children":[2,4,6,8,10,12,14,16,18,-1,20,22,24,-1,-1,-1,-1,-1,-1,-1,-1,-1,-1,-1,-1],"split_conditions":[3.157841E0,9.21E2,4.1790314E0,2.2970822E0,1.83438E2,1.06951E2,7.2992606E-8,-3.0716E1,2.2E2,-5.6301784E-2,-4.798402E-1,3.042E1,2.5808E1,-1.9483278E-2,7.416868E-2,-1.9932998E-2,-7.034203E-2,3.3841692E-3,-5.211667E-2,-1.6167793E-2,5.1312894E-2,-3.278578E-2,1.2246748E-2,3.8721345E-2,7.361018E-2],"split_indices":[4,13,4,5,11,11,8,12,6,0,2,11,12,0,0,0,0,0,0,0,0,0,0,0,0],"split_type":[0,0,0,0,0,0,0,0,0,0,0,0,0,0,0,0,0,0,0,0,0,0,0,0,0],"sum_hessian":[2.1996883E2,1.2465726E2,9.531156E1,1.06424194E2,1.8233068E1,3.864985E1,5.6661713E1,7.291021E1,3.3513985E1,1.7120435E0,1.6521025E1,1.9312325E1,1.9337523E1,1.1458833E0,5.551583E1,8.867392E0,6.4042816E1,2.0462442E1,1.3051543E1,4.137513E0,1.2383511E1,4.666677E0,1.4645648E1,9.496713E0,9.840811E0],"tree_param":{"num_deleted":"0","num_feature":"14","num_nodes":"25","size_leaf_vector":"1"}},{"base_weights":[2.1722347E-2,-9.424802E-1,1.042327E0,-1.1230527E0,8.942061E-2,4.3488234E-1,1.3486874E0,-1.2682338E0,-3.466954E-1,-8.008237E-1,5.512042E-1,-1.0462244E0,6.5902907E-1,-1.8949894E-2,1.3831555E0,1.5083164E-2,-6.51196E-2,7.958668E-3,-5.246932E-2,-5.8590867E-2,2.7112383E-2,1.3948267E-3,6.530493E-2,-4.7091614E-3,-6.403167E-2,1.2397582E-2,5.270241E-2,4.8559513E-2,7.2789215E-2],"categories":[],"categories_nodes":[],"categories_segments":[],"categories_sizes":[],"default_left":[0,0,0,0,0,0,0,0,0,0,0,0,0,0,0,0,0,0,0,0,0,0,0,0,0,0,0,0,0],"id":7,"left_children":[1,3,5,7,9,11,13,15,17,19,21,23,25,-1,27,-1,-1,-1,-1,-1,-1,-1,-1,-1,-1,-1,-1,-1,-1],"loss_changes":[2.1372649E2,2.091211E1,1.9046188E1,1.0282707E1,7.6604457E0,1.2921379E1,4.6720047E0,4.670395E0,5.9836864E0,3.8270268E0,4.765255E0,1.0464396E0,5.03481E0,0E0,6.358795E-1,0E0,0E0,0E0,0E0,0E0,0E0,0E0,0E0,0E0,0E0,0E0,0E0,0E0,0E0],"parents":[2147483647,0,0,1,1,2,2,3,3,4,4,5,5,6,6,7,7,8,8,9,9,10,10,11,11,12,12,14,14],"right_children":[2,4,6,8,10,12,14,16,18,20,22,24,26,-1,28,-1,-1,-1,-1,-1,-1,-1,-1,-1,-1,-1,-1,-1,-1],"split_conditions":[2.9775946E0,1.83438E2,3.7877042E0,2.4854267E0,2.443108E0,2.5272E1,7.2992606E-8,9.239809E-1,1.7837299E-6,9.064084E-6,6.3634E1,4.0563912E0,1.26194E2,-1.8949894E-2,4.1790314E0,1.5083164E-2,-6.51196E-2,7.958668E-3,-5.246932E-2,-5.8590867E-2,2.7112383E-2,1.3948267E-3,6.530493E-2,-4.7091614E-3,-6.403167E-2,1.2397582E-2,5.270241E-2,4.8559513E-2,7.2789215E-2],"split_indices":[4,11,4,5,4,11,8,10,7,7,12,9,11,0,4,0,0,0,0,0,0,0,0,0,0,0,0,0,0],"split_type":[0,0,0,0,0,0,0,0,0,0,0,0,0,0,0,0,0,0,0,0,0,0,0,0,0,0,0,0,0],"sum_hessian":[2.1518806E2,1.1069089E2,1.04497185E2,9.413062E1,1.6560265E1,3.5844673E1,6.8652504E1,7.876733E1,1.5363298E1,5.405375E0,1.1154888E1,4.229511E0,3.1615164E1,1.1473382E0,6.750517E1,1.5105724E0,7.725675E1,9.382382E0,5.9809165E0,4.3353424E0,1.0700327E0,7.20039E0,3.9544988E0,1.1125855E0,3.1169252E0,1.6290312E1,1.5324851E1,1.227138E1,5.5233788E1],"tree_param":{"num_deleted":"0","num_feature":"14","num_nodes":"29","size_leaf_vector":"1"}},{"base_weights":[-6.9655664E-3,-6.943147E-1,1.1825979E0,-1.1142943E0,-1.5818591E-1,-2.6493927E-2,1.2733803E0,-1.3072721E0,-6.384819E-1,-4.795294E-1,6.849155E-1,-8.4605455E-1,6.452505E-1,1.3051823E0,-6.6672354E-3,-1.7253507E-3,-6.663803E-2,-5.073769E-2,4.0742243E-3,-8.528373E-3,-5.9853435E-2,4.5614824E-2,-1.5725823E-2,-1.0871253E-2,-5.3569056E-2,-1.6726343E-2,5.666664E-2,3.578384E-3,6.631707E-2],"categories":[],"categories_nodes":[],"categories_segments":[],"categories_sizes":[],"default_left":[0,0,0,0,0,0,0,0,0,0,0,0,0,0,0,0,0,0,0,0,0,0,0,0,0,0,0,0,0],"id":8,"left_children":[1,3,5,7,9,11,13,15,17,19,21,23,25,27,-1,-1,-1,-1,-1,-1,-1,-1,-1,-1,-1,-1,-1,-1,-1],"loss_changes":[1.772295E2,3.0754578E1,8.746925E0,6.223068E0,1.6992195E1,4.1373525E0,3.4781723E0,1.6970596E0,6.620549E0,9.798898E0,4.2377996E0,2.4456644E-1,2.3648548E0,1.7927017E0,0E0,0E0,0E0,0E0,0E0,0E0,0E0,0E0,0E0,0E0,0E0,0E0,0E0,0E0,0E0],"parents":[2147483647,0,0,1,1,2,2,3,3,4,4,5,5,6,6,7,7,8,8,9,9,10,10,11,11,12,12,13,13],"right_children":[2,4,6,8,10,12,14,16,18,20,22,24,26,28,-1,-1,-1,-1,-1,-1,-1,-1,-1,-1,-1,-1,-1,-1,-1],"split_conditions":[3.4343193E0,4.27E2,2.04E2,2.6404562E0,2.8663988E0,4.0774283E0,1.1146948E1,2.7796388E0,5.207E0,2.2E2,3.2979634E0,1.3113278E0,-1.923E0,8.768873E-1,-6.6672354E-3,-1.7253507E-3,-6.663803E-2,-5.073769E-2,4.0742243E-3,-8.528373E-3,-5.9853435E-2,4.5614824E-2,-1.5725823E-2,-1.0871253E-2,-5.3569056E-2,-1.6726343E-2,5.666664E-2,3.578384E-3,6.631707E-2],"split_indices":[4,13,13,4,4,4,3,9,12,6,4,10,12,10,0,0,0,0,0,0,0,0,0,0,0,0,0,0,0],"split_type":[0,0,0,0,0,0,0,0,0,0,0,0,0,0,0,0,0,0,0,0,0,0,0,0,0,0,0,0,0],"sum_hessian":[2.1475172E2,1.3637079E2,7.8380936E1,7.586393E1,6.0506863E1,5.5235343E0,7.28574E1,5.2730347E1,2.3133581E1,4.4121445E1,1.6385416E1,2.37114E0,3.1523943E0,7.131731E1,1.5400976E0,1.08146E0,5.1648888E1,1.4924322E1,8.209259E0,3.1706709E1,1.2414735E1,1.3419523E1,2.965894E0,1.144125E0,1.227015E0,1.1528234E0,1.9995707E0,1.2765024E0,7.00408E1],"tree_param":{"num_deleted":"0","num_feature":"14","num_nodes":"29","size_leaf_vector":"1"}},{"base_weights":[4.2167563E-2,-6.366989E-1,1.1633961E0,-1.0790077E0,-1.10543914E-1,4.8521626E-1,1.289825E0,-1.3113971E0,-4.706756E-1,6.6813016E-1,-4.0408626E-1,-5.670933E-2,7.9693973E-1,-1.9209338E-2,1.3245625E0,-6.824314E-2,9.717789E-4,-4.6906224E-3,-6.0639825E-2,6.2415063E-2,-1.6173067E-3,2.6327306E-2,-3.2042805E-2,1.1332232E-2,5.6533437E-2,6.736646E-2,1.3591208E-2],"categories":[],"categories_nodes":[],"categories_segments":[],"categories_sizes":[],"default_left":[0,0,0,0,0,0,0,0,0,0,0,0,0,0,0,0,0,0,0,0,0,0,0,0,0,0,0],"id":9,"left_children":[1,3,5,7,9,11,13,15,17,19,21,-1,23,-1,25,-1,-1,-1,-1,-1,-1,-1,-1,-1,-1,-1,-1],"loss_changes":[1.6243974E2,3.082518E1,6.273735E0,9.579094E0,1.4405376E1,8.09599E0,4.4179077E0,3.700119E0,5.8983083E0,7.0740247E0,1.0370731E1,0E0,2.1294136E0,0E0,1.2175369E0,0E0,0E0,0E0,0E0,0E0,0E0,0E0,0E0,0E0,0E0,0E0,0E0],"parents":[2147483647,0,0,1,1,2,2,3,3,4,4,5,5,6,6,7,7,8,8,9,9,10,10,12,12,14,14],"right_children":[2,4,6,8,10,12,14,16,18,20,22,-1,24,-1,26,-1,-1,-1,-1,-1,-1,-1,-1,-1,-1,-1,-1],"split_conditions":[3.4343193E0,4.18E2,3.7877042E0,2.2970822E0,-2.4644835E0,3.2589E1,7.2992606E-8,3.1998496E0,6.505839E0,8.8E1,8.1415595E-7,-5.670933E-2,4.1932487E0,-1.9209338E-2,1.1146275E1,-6.824314E-2,9.717789E-4,-4.6906224E-3,-6.0639825E-2,6.2415063E-2,-1.6173067E-3,2.6327306E-2,-3.2042805E-2,1.1332232E-2,5.6533437E-2,6.736646E-2,1.3591208E-2],"split_indices":[4,13,4,5,5,11,8,4,9,6,8,0,9,0,3,0,0,0,0,0,0,0,0,0,0,0,0],"split_type":[0,0,0,0,0,0,0,0,0,0,0,0,0,0,0,0,0,0,0,0,0,0,0,0,0,0,0],"sum_hessian":[2.1143636E2,1.3196692E2,7.946943E1,7.112522E1,6.08417E1,1.3247283E1,6.6222145E1,5.0628773E1,2.049645E1,1.630737E1,4.4534332E1,1.7124854E0,1.1534798E1,1.1417365E0,6.5080414E1,4.8648754E1,1.9800179E0,1.4340488E1,6.1559625E0,8.491877E0,7.815491E0,8.784127E0,3.5750206E1,4.878045E0,6.656752E0,6.342886E1,1.6515517E0],"tree_param":{"num_deleted":"0","num_feature":"14","num_nodes":"27","size_leaf_vector":"1"}},{"base_weights":[-4.7576004E-3,-6.483912E-1,1.1111075E0,-1.1395137E0,-1.440327E-1,-1.868568E-2,1.1381872E0,-1.1935552E0,3.839643E-2,-1.0732621E0,8.634873E-2,7.6342875E-1,1.3081537E0,1.4109982E-4,-6.254739E-2,-6.94172E-2,1.3357877E-2,1.4747269E-2,-2.5089858E-2,4.3164894E-2,-3.1030923E-2,6.687286E-2,1.3267465E-2],"categories":[],"categories_nodes":[],"categories_segments":[],"categories_sizes":[],"default_left":[0,0,0,0,0,0,0,0,0,0,0,0,0,0,0,0,0,0,0,0,0,0,0],"id":10,"left_children":[1,3,5,7,9,-1,11,13,-1,15,17,19,21,-1,-1,-1,-1,-1,-1,-1,-1,-1,-1],"loss_changes":[1.5238908E2,3.316626E1,3.5462646E0,7.9290695E0,1.4549176E1,0E0,3.87249E0,4.572815E0,0E0,6.0685587E0,6.900448E0,4.1659994E0,1.2100143E0,0E0,0E0,0E0,0E0,0E0,0E0,0E0,0E0,0E0,0E0],"parents":[2147483647,0,0,1,1,2,2,3,3,4,4,6,6,7,7,9,9,10,10,11,11,12,12],"right_children":[2,4,6,8,10,-1,12,14,-1,16,18,20,22,-1,-1,-1,-1,-1,-1,-1,-1,-1,-1],"split_conditions":[3.4343193E0,2.4488552E0,7.2992606E-8,8.516085E-6,3.7300896E-7,-1.868568E-2,4.1790314E0,2.7276316E0,3.839643E-2,2.7153971E0,2.64E2,9.460243E-1,1.1146275E1,1.4109982E-4,-6.254739E-2,-6.94172E-2,1.3357877E-2,1.4747269E-2,-2.5089858E-2,4.3164894E-2,-3.1030923E-2,6.687286E-2,1.3267465E-2],"split_indices":[4,4,8,7,8,0,4,9,0,5,6,2,3,0,0,0,0,0,0,0,0,0,0],"split_type":[0,0,0,0,0,0,0,0,0,0,0,0,0,0,0,0,0,0,0,0,0,0,0],"sum_hessian":[2.1017642E2,1.335585E2,7.661793E1,6.702911E1,6.652938E1,1.1430372E0,7.5474884E1,6.5546326E1,1.482789E0,1.2490616E1,5.403877E1,2.5263391E1,5.0211494E1,3.0439756E0,6.250235E1,1.0084402E1,2.4062138E0,4.0258774E1,1.3779992E1,2.3914068E1,1.3493234E0,4.8564255E1,1.6472418E0],"tree_param":{"num_deleted":"0","num_feature":"14","num_nodes":"23","size_leaf_vector":"1"}},{"base_weights":[-2.4476884E-2,-7.238746E-1,9.6762025E-1,-1.1346313E0,-2.0783274E-1,4.6780622E-1,1.2191445E0,3.396468E-2,-1.175412E0,-9.419185E-1,9.596462E-2,-4.2614277E-2,1.0584075E0,1.1286892E-2,1.2453369E0,-2.7721167E-2,-6.226611E-2,1.869274E-2,-5.435399E-2,-2.8063184E-2,2.4519475E-2,-2.186609E-2,2.1168398E-2,5.8764137E-2,-4.3402156E-3,6.474947E-2,3.023307E-2],"categories":[],"categories_nodes":[],"categories_segments":[],"categories_sizes":[],"default_left":[0,0,0,0,0,0,0,0,0,0,0,0,0,0,0,0,0,0,0,0,0,0,0,0,0,0,0],"id":11,"left_children":[1,3,5,7,9,11,13,-1,15,17,19,21,23,-1,25,-1,-1,-1,-1,-1,-1,-1,-1,-1,-1,-1,-1],"loss_changes":[1.3867361E2,2.4606644E1,9.819603E0,5.609085E0,1.1947313E1,8.874737E0,1.1332245E0,0E0,2.08667E0,3.3964796E0,1.0258599E1,3.251727E0,1.9246426E0,0E0,8.946457E-1,0E0,0E0,0E0,0E0,0E0,0E0,0E0,0E0,0E0,0E0,0E0,0E0],"parents":[2147483647,0,0,1,1,2,2,3,3,4,4,5,5,6,6,8,8,9,9,10,10,11,11,12,12,14,14],"right_children":[2,4,6,8,10,12,14,-1,16,18,20,22,24,-1,26,-1,-1,-1,-1,-1,-1,-1,-1,-1,-1,-1,-1],"split_conditions":[3.157841E0,4.2E2,8.6177E1,2.7276316E0,2.286405E0,4.1790314E0,8.768873E-1,3.396468E-2,8.8E1,-1.00347E2,-2.8113505E-1,2.908E0,2.8893E1,1.1286892E-2,8.727491E-1,-2.7721167E-2,-6.226611E-2,1.869274E-2,-5.435399E-2,-2.8063184E-2,2.4519475E-2,-2.186609E-2,2.1168398E-2,5.8764137E-2,-4.3402156E-3,6.474947E-2,3.023307E-2],"split_indices":[4,13,11,9,4,4,10,0,6,12,2,12,12,0,2,0,0,0,0,0,0,0,0,0,0,0,0],"split_type":[0,0,0,0,0,0,0,0,0,0,0,0,0,0,0,0,0,0,0,0,0,0,0,0,0,0,0],"sum_hessian":[1.9784572E2,1.1619923E2,8.164649E1,6.403233E1,5.216689E1,2.8290056E1,5.3356438E1,1.0636572E0,6.2968678E1,1.465487E1,3.751202E1,1.5672833E1,1.2617223E1,1.6177604E0,5.1738678E1,7.2752876E0,5.569339E1,1.2995971E0,1.3355273E1,1.3910322E1,2.3601696E1,8.518659E0,7.154175E0,1.1424982E1,1.19224E0,4.706949E1,4.6691875E0],"tree_param":{"num_deleted":"0","num_feature":"14","num_nodes":"27","size_leaf_vector":"1"}},{"base_weights":[-6.40968E-3,-6.204104E-1,1.0907979E0,-8.334546E-1,2.0691673E-1,5.597943E-1,1.2432625E0,-4.5242363E-1,-1.1041079E0,-7.372491E-1,4.8905772E-1,-5.72242E-1,7.7874666E-1,1.2703406E0,2.4294022E-3,-6.287467E-2,-1.3530172E-2,-5.9913933E-2,-1.1185841E-4,1.6724413E-2,-6.2861085E-2,5.7317775E-2,8.282124E-3,8.496083E-3,-5.3863365E-2,1.4776555E-2,5.202008E-2,2.5929851E-2,6.56645E-2],"categories":[],"categories_nodes":[],"categories_segments":[],"categories_sizes":[],"default_left":[0,0,0,0,0,0,0,0,0,0,0,0,0,0,0,0,0,0,0,0,0,0,0,0,0,0,0,0,0],"id":12,"left_children":[1,3,5,7,9,11,13,15,17,19,21,23,25,27,-1,-1,-1,-1,-1,-1,-1,-1,-1,-1,-1,-1,-1,-1,-1],"loss_changes":[1.3634708E2,2.3044178E1,5.183426E0,1.0162773E1,7.6525693E0,4.911894E0,1.7369919E0,6.1930532E0,6.1978683E0,4.15246E0,4.4181914E0,1.4936763E0,1.6551151E0,1.0731049E0,0E0,0E0,0E0,0E0,0E0,0E0,0E0,0E0,0E0,0E0,0E0,0E0,0E0,0E0,0E0],"parents":[2147483647,0,0,1,1,2,2,3,3,4,4,5,5,6,6,7,7,8,8,9,9,10,10,11,11,12,12,13,13],"right_children":[2,4,6,8,10,12,14,16,18,20,22,24,26,28,-1,-1,-1,-1,-1,-1,-1,-1,-1,-1,-1,-1,-1,-1,-1],"split_conditions":[3.4343193E0,1.56267E2,6.2515E1,1.76E2,2.443108E0,3.7116396E0,1.1146948E1,2.0965447E0,2.9245121E0,-6.1042E1,1.6627304E-6,3.5956504E0,4.1357093E0,2.651403E0,2.4294022E-3,-6.287467E-2,-1.3530172E-2,-5.9913933E-2,-1.1185841E-4,1.6724413E-2,-6.2861085E-2,5.7317775E-2,8.282124E-3,8.496083E-3,-5.3863365E-2,1.4776555E-2,5.202008E-2,2.5929851E-2,6.56645E-2],"split_indices":[4,11,11,6,4,4,3,4,5,12,7,4,4,9,0,0,0,0,0,0,0,0,0,0,0,0,0,0,0],"split_type":[0,0,0,0,0,0,0,0,0,0,0,0,0,0,0,0,0,0,0,0,0,0,0,0,0,0,0,0,0],"sum_hessian":[2.0038506E2,1.2876329E2,7.162177E1,1.02389626E2,2.6373661E1,1.7019148E1,5.4602623E1,4.3633347E1,5.8756275E1,5.6967664E0,2.0676895E1,2.4967587E0,1.4522389E1,5.3330517E1,1.2721043E0,6.9488516E0,3.6684498E1,5.4049473E1,4.706803E0,1.9775252E0,3.719241E0,5.979612E0,1.4697284E1,1.2797017E0,1.217057E0,5.8493943E0,8.672995E0,3.588889E0,4.974163E1],"tree_param":{"num_deleted":"0","num_feature":"14","num_nodes":"29","size_leaf_vector":"1"}},{"base_weights":[1.8966515E-2,-7.086611E-1,7.480934E-1,-2.3158385E-1,-1.2253121E0,-3.118436E-1,9.4198304E-1,-9.1449034E-1,1.9160303E-1,-1.2787964E0,2.9383248E-2,-8.466869E-1,7.0598114E-1,5.48676E-1,1.1993222E0,9.491993E-3,-5.394615E-2,3.0333996E-2,-1.0921048E-2,-3.9816625E-2,-6.6597156E-2,-6.334203E-2,2.6061738E-2,5.2048504E-2,-5.9371875E-3,3.3171143E-2,-4.3658867E-2,6.1567165E-2,-3.1078483E-3],"categories":[],"categories_nodes":[],"categories_segments":[],"categories_sizes":[],"default_left":[0,0,0,0,0,0,0,0,0,0,0,0,0,0,0,0,0,0,0,0,0,0,0,0,0,0,0,0,0],"id":13,"left_children":[1,3,5,7,9,11,13,15,17,19,-1,21,23,25,27,-1,-1,-1,-1,-1,-1,-1,-1,-1,-1,-1,-1,-1,-1],"loss_changes":[1.06379326E2,2.4456577E1,2.087386E1,1.5613003E1,5.401512E0,9.436766E0,7.9353867E0,3.9475174E0,5.88627E0,1.4180756E-1,0E0,7.039068E0,1.8194897E0,6.3588343E0,2.115631E0,0E0,0E0,0E0,0E0,0E0,0E0,0E0,0E0,0E0,0E0,0E0,0E0,0E0,0E0],"parents":[2147483647,0,0,1,1,2,2,3,3,4,4,5,5,6,6,7,7,8,8,9,9,11,11,12,12,13,13,14,14],"right_children":[2,4,6,8,10,12,14,16,18,20,-1,22,24,26,28,-1,-1,-1,-1,-1,-1,-1,-1,-1,-1,-1,-1,-1,-1],"split_conditions":[2.8683815E0,2.2E2,2.64E2,2.2978652E0,2.851671E0,3.993E0,3.9893463E0,-3.7276E1,1.7837299E-6,2.64E2,2.9383248E-2,4.0774283E0,2.18E2,9.8332304E-1,1.1146275E1,9.491993E-3,-5.394615E-2,3.0333996E-2,-1.0921048E-2,-3.9816625E-2,-6.6597156E-2,-6.334203E-2,2.6061738E-2,5.2048504E-2,-5.9371875E-3,3.3171143E-2,-4.3658867E-2,6.1567165E-2,-3.1078483E-3],"split_indices":[4,6,13,4,4,12,4,12,7,6,0,4,13,2,3,0,0,0,0,0,0,0,0,0,0,0,0,0,0],"split_type":[0,0,0,0,0,0,0,0,0,0,0,0,0,0,0,0,0,0,0,0,0,0,0,0,0,0,0,0,0],"sum_hessian":[1.9851485E2,9.937363E1,9.914121E1,5.241848E1,4.695515E1,1.5236955E1,8.390426E1,1.961092E1,3.2807556E1,4.589583E1,1.0593224E0,1.0098544E1,5.13841E0,3.4424034E1,4.948023E1,2.5215654E0,1.7089355E1,1.6064981E1,1.6742577E1,6.1400805E0,3.975575E1,7.782166E0,2.316378E0,3.4676914E0,1.670719E0,3.2346966E1,2.077066E0,4.8278625E1,1.2016037E0],"tree_param":{"num_deleted":"0","num_feature":"14","num_nodes":"29","size_leaf_vector":"1"}},{"base_weights":[4.1092817E-2,-7.368001E-1,7.8434396E-1,-3.712382E-1,-1.1470482E0,3.714521E-1,1.2000841E0,-9.6564543E-1,1.8344732E-2,-1.2286716E0,9.062238E-3,-8.182271E-1,5.744756E-1,-2.2538822E-2,6.2390156E-2,1.1944777E-3,-6.152718E-2,-1.0243977E-2,4.7154997E-2,-3.7674777E-2,-6.424828E-2,-4.1663636E-2,3.6567654E-2,7.2552287E-3,-5.510483E-2,1.0377434E-2,4.5522306E-2],"categories":[],"categories_nodes":[],"categories_segments":[],"categories_sizes":[],"default_left":[0,0,0,0,0,0,0,0,0,0,0,0,0,0,0,0,0,0,0,0,0,0,0,0,0,0,0],"id":14,"left_children":[1,3,5,7,9,11,13,15,17,19,21,23,25,-1,-1,-1,-1,-1,-1,-1,-1,-1,-1,-1,-1,-1,-1],"loss_changes":[1.13463486E2,1.395874E1,1.6776585E1,1.2105408E1,4.2308693E0,1.2978098E1,4.465477E0,5.4515324E0,6.9049015E0,1.4926147E-1,3.0075107E0,2.3371272E0,5.3368416E0,0E0,0E0,0E0,0E0,0E0,0E0,0E0,0E0,0E0,0E0,0E0,0E0,0E0,0E0],"parents":[2147483647,0,0,1,1,2,2,3,3,4,4,5,5,6,6,7,7,8,8,9,9,10,10,11,11,12,12],"right_children":[2,4,6,8,10,12,14,16,18,20,22,24,26,-1,-1,-1,-1,-1,-1,-1,-1,-1,-1,-1,-1,-1,-1],"split_conditions":[2.8683815E0,2.2E2,4.1790314E0,2.2978652E0,2.773763E0,2.5272E1,7.2992606E-8,-2.1214807E0,2.26091E2,2.64E2,6.5219E1,4.1733336E0,1.26194E2,-2.2538822E-2,6.2390156E-2,1.1944777E-3,-6.152718E-2,-1.0243977E-2,4.7154997E-2,-3.7674777E-2,-6.424828E-2,-4.1663636E-2,3.6567654E-2,7.2552287E-3,-5.510483E-2,1.0377434E-2,4.5522306E-2],"split_indices":[4,6,4,4,4,11,8,5,11,6,11,9,11,0,0,0,0,0,0,0,0,0,0,0,0,0,0],"split_type":[0,0,0,0,0,0,0,0,0,0,0,0,0,0,0,0,0,0,0,0,0,0,0,0,0,0,0],"sum_hessian":[1.9424641E2,9.491561E1,9.93308E1,5.119867E1,4.3716946E1,5.078611E1,4.8544693E1,1.9685223E1,3.1513445E1,4.0775375E1,2.941571E0,6.9616942E0,4.3824417E1,1.1264968E0,4.7418198E1,4.3490467E0,1.5336177E1,2.6012745E1,5.5007E0,5.842661E0,3.4932713E1,1.2870092E0,1.6545618E0,1.6957788E0,5.265916E0,2.1720425E1,2.210399E1],"tree_param":{"num_deleted":"0","num_feature":"14","num_nodes":"27","size_leaf_vector":"1"}},{"base_weights":[3.2536455E-3,-6.239117E-1,8.191357E-1,-8.082166E-1,3.1605527E-1,3.7926552E-1,1.1078773E0,-1.0460984E0,-2.9437014E-1,-6.730516E-1,6.7391115E-1,-4.432599E-2,8.820859E-1,-2.7381776E-2,1.1545188E0,-6.0440183E-2,-2.8534068E-2,3.0410152E-3,-5.9023984E-2,2.6588235E-2,-5.3597867E-2,-2.4096454E-2,4.298204E-2,2.83222E-2,-2.5082577E-2,4.8261847E-2,-4.7883913E-3,5.9164286E-2,8.531515E-3],"categories":[],"categories_nodes":[],"categories_segments":[],"categories_sizes":[],"default_left":[0,0,0,0,0,0,0,0,0,0,0,0,0,0,0,0,0,0,0,0,0,0,0,0,0,0,0,0,0],"id":15,"left_children":[1,3,5,7,9,11,13,15,17,19,21,23,25,-1,27,-1,-1,-1,-1,-1,-1,-1,-1,-1,-1,-1,-1,-1,-1],"loss_changes":[9.960902E1,1.932309E1,1.0325058E1,1.0974628E1,7.094554E0,7.503892E0,4.535862E0,4.1603546E0,9.702898E0,3.2061417E0,3.479208E0,5.863477E0,1.3993235E0,0E0,1.1988678E0,0E0,0E0,0E0,0E0,0E0,0E0,0E0,0E0,0E0,0E0,0E0,0E0,0E0,0E0],"parents":[2147483647,0,0,1,1,2,2,3,3,4,4,5,5,6,6,7,7,8,8,9,9,10,10,11,11,12,12,14,14],"right_children":[2,4,6,8,10,12,14,16,18,20,22,24,26,-1,28,-1,-1,-1,-1,-1,-1,-1,-1,-1,-1,-1,-1,-1,-1],"split_conditions":[3.157841E0,9.21E2,4.0774283E0,2.2970822E0,-4.798402E-1,1.26194E2,9.9943435E-8,1.5638956E-6,6.141086E0,1.4335275E-6,1.99414E2,1.1092293E1,2E-1,-2.7381776E-2,1.1146275E1,-6.0440183E-2,-2.8534068E-2,3.0410152E-3,-5.9023984E-2,2.6588235E-2,-5.3597867E-2,-2.4096454E-2,4.298204E-2,2.83222E-2,-2.5082577E-2,4.8261847E-2,-4.7883913E-3,5.9164286E-2,8.531515E-3],"split_indices":[4,13,4,5,2,11,8,7,9,7,11,3,1,0,3,0,0,0,0,0,0,0,0,0,0,0,0,0,0],"split_type":[0,0,0,0,0,0,0,0,0,0,0,0,0,0,0,0,0,0,0,0,0,0,0,0,0,0,0,0,0],"sum_hessian":[1.9266682E2,1.090646E2,8.3602234E1,9.1302536E1,1.7762064E1,3.404755E1,4.955468E1,6.1702126E1,2.960041E1,4.484952E0,1.3277111E1,1.8974602E1,1.5072948E1,1.0635422E0,4.849114E1,4.4820328E1,1.6881796E1,2.1795292E1,7.805119E0,1.0327317E0,3.4522204E0,1.6173247E0,1.1659786E1,8.022178E0,1.0952425E1,1.3903571E1,1.1693767E0,4.6916725E1,1.5744147E0],"tree_param":{"num_deleted":"0","num_feature":"14","num_nodes":"29","size_leaf_vector":"1"}},{"base_weights":[-1.3556825E-3,-6.337487E-1,6.3727367E-1,-7.5807583E-1,5.9774095E-1,2.4318421E-1,1.0632188E0,-1.012222E0,-2.4877901E-1,-1.0398553E-2,8.568862E-1,-2.3219799E-1,6.3695276E-1,-2.6610289E-2,1.1152966E0,2.5068691E-2,-5.297742E-2,9.297499E-3,-4.7244016E-2,5.5425573E-2,-2.028381E-3,-3.6498453E-2,2.294862E-2,-3.3323508E-2,3.5738643E-2,5.4060384E-3,5.768099E-2],"categories":[],"categories_nodes":[],"categories_segments":[],"categories_sizes":[],"default_left":[0,0,0,0,0,0,0,0,0,0,0,0,0,0,0,0,0,0,0,0,0,0,0,0,0,0,0],"id":16,"left_children":[1,3,5,7,9,11,13,15,17,-1,19,21,23,-1,25,-1,-1,-1,-1,-1,-1,-1,-1,-1,-1,-1,-1],"loss_changes":[7.4855804E1,1.4711731E1,1.5221653E1,1.075399E1,2.0780196E0,9.357326E0,4.251236E0,4.5711594E0,9.142681E0,0E0,1.6437588E0,8.255646E0,3.232911E0,0E0,1.5332146E0,0E0,0E0,0E0,0E0,0E0,0E0,0E0,0E0,0E0,0E0,0E0,0E0],"parents":[2147483647,0,0,1,1,2,2,3,3,4,4,5,5,6,6,7,7,8,8,10,10,11,11,12,12,14,14],"right_children":[2,4,6,8,10,12,14,16,18,-1,20,22,24,-1,26,-1,-1,-1,-1,-1,-1,-1,-1,-1,-1,-1,-1],"split_conditions":[2.8938568E0,1.093E3,4.1790314E0,2.2970822E0,-7.234315E-2,4.78E2,9.9943435E-8,9.327916E-1,1.7837299E-6,-1.0398553E-2,2.7943E1,5.207E0,9.0406424E-1,-2.6610289E-2,-1.4551915E-11,2.5068691E-2,-5.297742E-2,9.297499E-3,-4.7244016E-2,5.5425573E-2,-2.028381E-3,-3.6498453E-2,2.294862E-2,-3.3323508E-2,3.5738643E-2,5.4060384E-3,5.768099E-2],"split_indices":[4,13,4,5,2,13,8,10,7,0,12,12,10,0,1,0,0,0,0,0,0,0,0,0,0,0,0],"split_type":[0,0,0,0,0,0,0,0,0,0,0,0,0,0,0,0,0,0,0,0,0,0,0,0,0,0,0],"sum_hessian":[1.8334866E2,9.2127975E1,9.122069E1,8.40291E1,8.098874E0,4.819813E1,4.3022552E1,5.539749E1,2.8631607E1,2.0190113E0,6.0798626E0,2.2022047E1,2.6176085E1,1.0685203E0,4.1954033E1,1.3887413E0,5.400875E1,1.8075788E1,1.0555818E1,4.5648193E0,1.5150434E0,1.2769501E1,9.252546E0,1.0486021E0,2.5127483E1,1.6779145E0,4.027612E1],"tree_param":{"num_deleted":"0","num_feature":"14","num_nodes":"27","size_leaf_vector":"1"}},{"base_weights":[1.3742253E-2,-4.062331E-1,6.534127E-1,6.777217E-1,-6.567176E-1,3.7559706E-1,1.0918006E0,-1.5965816E-1,9.265337E-1,-9.841085E-1,5.000768E-2,9.2163837E-1,-3.1811856E-2,1.1442164E0,-1.3226136E-3,3.1698447E-2,-4.4449013E-2,-1.385885E-2,5.5071037E-2,2.9680645E-2,-5.1252246E-2,-6.829252E-3,4.6318788E-2,1.5414827E-2,5.4020155E-2,2.8955072E-2,-1.8703654E-2,5.8720775E-2,1.2305812E-2],"categories":[],"categories_nodes":[],"categories_segments":[],"categories_sizes":[],"default_left":[0,0,0,0,0,0,0,0,0,0,0,0,0,0,0,0,0,0,0,0,0,0,0,0,0,0,0,0,0],"id":17,"left_children":[1,3,5,7,9,11,13,15,17,19,21,23,25,27,-1,-1,-1,-1,-1,-1,-1,-1,-1,-1,-1,-1,-1,-1,-1],"loss_changes":[4.9859184E1,3.0870083E1,8.547585E0,4.6328917E0,2.1227215E1,1.03836E1,1.6717834E0,3.9113936E0,3.829729E0,4.6516647E0,5.0207033E0,1.606823E0,5.99225E0,4.3711853E-1,0E0,0E0,0E0,0E0,0E0,0E0,0E0,0E0,0E0,0E0,0E0,0E0,0E0,0E0,0E0],"parents":[2147483647,0,0,1,1,2,2,3,3,4,4,5,5,6,6,7,7,8,8,9,9,10,10,11,11,12,12,13,13],"right_children":[2,4,6,8,10,12,14,16,18,20,22,24,26,28,-1,-1,-1,-1,-1,-1,-1,-1,-1,-1,-1,-1,-1,-1,-1],"split_conditions":[6.59E2,-3.1583614E0,3.3734436E0,2.04E2,2.5075815E0,-2.8770294E0,1.1146948E1,1.1093063E1,1.0189486E0,9.239809E-1,4.183303E0,1.106426E1,1.0588528E0,3.4315624E1,-1.3226136E-3,3.1698447E-2,-4.4449013E-2,-1.385885E-2,5.5071037E-2,2.9680645E-2,-5.1252246E-2,-6.829252E-3,4.6318788E-2,1.5414827E-2,5.4020155E-2,2.8955072E-2,-1.8703654E-2,5.8720775E-2,1.2305812E-2],"split_indices":[13,5,5,13,5,5,3,3,10,10,5,3,10,9,0,0,0,0,0,0,0,0,0,0,0,0,0,0,0],"split_type":[0,0,0,0,0,0,0,0,0,0,0,0,0,0,0,0,0,0,0,0,0,0,0,0,0,0,0,0,0],"sum_hessian":[1.8360641E2,1.1105695E2,7.254946E1,2.052608E1,9.0530876E1,4.554402E1,2.700544E1,4.7839513E0,1.5742127E1,6.1601467E1,2.8929413E1,1.8921608E1,2.6622416E1,2.5774113E1,1.2313273E0,2.3535876E0,2.4303637E0,1.9228258E0,1.3819302E1,1.2164782E0,6.0384987E1,2.4547092E1,4.3823204E0,4.4956813E0,1.4425926E1,9.310971E0,1.7311443E1,2.4637981E1,1.1361309E0],"tree_param":{"num_deleted":"0","num_feature":"14","num_nodes":"29","size_leaf_vector":"1"}},{"base_weights":[1.5399634E-3,-4.407313E-1,8.4376377E-1,-7.743776E-2,-9.0617174E-1,3.7617645E-1,1.0260786E0,-8.3172476E-1,1.6440356E-1,-1.1351774E0,-6.219972E-2,5.514717E-2,-5.272137E-3,1.0574508E0,-4.1340925E-3,7.4386597E-3,-5.2098423E-2,1.20251095E-2,-5.7785578E-2,-9.764886E-3,-5.8181025E-2,-3.2458015E-2,5.2465368E-2,-3.917801E-2,1.192399E-2,5.443753E-2,-2.929787E-3],"categories":[],"categories_nodes":[],"categories_segments":[],"categories_sizes":[],"default_left":[0,0,0,0,0,0,0,0,0,0,0,0,0,0,0,0,0,0,0,0,0,0,0,0,0,0,0],"id":18,"left_children":[1,3,5,7,9,11,13,15,17,19,21,-1,23,25,-1,-1,-1,-1,-1,-1,-1,-1,-1,-1,-1,-1,-1],"loss_changes":[6.970398E1,2.0677351E1,5.106617E0,1.2906934E1,1.030722E1,5.4542027E0,1.6797638E0,3.692647E0,5.687085E0,9.002571E-1,8.848078E0,0E0,2.8207676E0,1.6214333E0,0E0,0E0,0E0,0E0,0E0,0E0,0E0,0E0,0E0,0E0,0E0,0E0,0E0],"parents":[2147483647,0,0,1,1,2,2,3,3,4,4,5,5,6,6,7,7,8,8,9,9,10,10,12,12,13,13],"right_children":[2,4,6,8,10,12,14,16,18,20,22,-1,24,26,-1,-1,-1,-1,-1,-1,-1,-1,-1,-1,-1,-1,-1],"split_conditions":[3.4570065E0,2.2E2,4.0774283E0,2.2265925E0,2.851671E0,8.8E1,1.1146275E1,-2.1214807E0,1.114415E1,2.7276316E0,5.17E2,5.514717E-2,3.2589E1,1.892E3,-4.1340925E-3,7.4386597E-3,-5.2098423E-2,1.20251095E-2,-5.7785578E-2,-9.764886E-3,-5.8181025E-2,-3.2458015E-2,5.2465368E-2,-3.917801E-2,1.192399E-2,5.443753E-2,-2.929787E-3],"split_indices":[4,6,4,4,4,6,3,5,3,9,13,0,11,6,0,0,0,0,0,0,0,0,0,0,0,0,0],"split_type":[0,0,0,0,0,0,0,0,0,0,0,0,0,0,0,0,0,0,0,0,0,0,0,0,0,0,0],"sum_hessian":[1.8513077E2,1.2169999E2,6.3430782E1,6.9005226E1,5.2694767E1,1.8653362E1,4.477742E1,1.6161001E1,5.2844223E1,4.117672E1,1.1518044E1,5.769459E0,1.28839035E1,4.3590313E1,1.1871067E0,2.9050963E0,1.3255904E1,5.0737267E1,2.106955E0,1.4405689E0,3.9736153E1,7.809825E0,3.7082195E0,2.5445855E0,1.0339318E1,4.242495E1,1.1653633E0],"tree_param":{"num_deleted":"0","num_feature":"14","num_nodes":"27","size_leaf_vector":"1"}},{"base_weights":[-2.8597735E-2,-4.6080175E-1,8.027042E-1,-8.6003435E-1,-1.98429E-2,2.1188632E-1,9.979185E-1,-1.155691E0,-1.7882152E-1,-8.528294E-1,1.732114E-1,-4.9806595E-1,7.5713104E-1,1.0470642E0,-1.4471933E-2,-5.9046276E-2,-1.4061241E-2,1.750255E-2,-5.46184E-2,2.1486556E-2,-5.3244203E-2,1.3600414E-2,-4.519925E-2,-4.189186E-2,4.0021513E-2,4.5410722E-2,-6.349121E-3,7.4628005E-3,5.4937996E-2],"categories":[],"categories_nodes":[],"categories_segments":[],"categories_sizes":[],"default_left":[0,0,0,0,0,0,0,0,0,0,0,0,0,0,0,0,0,0,0,0,0,0,0,0,0,0,0,0,0],"id":19,"left_children":[1,3,5,7,9,11,13,15,17,19,21,23,25,27,-1,-1,-1,-1,-1,-1,-1,-1,-1,-1,-1,-1,-1,-1,-1],"loss_changes":[6.399811E1,2.0606762E1,6.817425E0,1.2171856E1,9.264131E0,6.727397E0,3.1841393E0,6.096153E-1,9.941314E0,3.4045215E0,5.232339E0,4.080739E0,1.4077415E0,1.8818703E0,0E0,0E0,0E0,0E0,0E0,0E0,0E0,0E0,0E0,0E0,0E0,0E0,0E0,0E0,0E0],"parents":[2147483647,0,0,1,1,2,2,3,3,4,4,5,5,6,6,7,7,8,8,9,9,10,10,11,11,12,12,13,13],"right_children":[2,4,6,8,10,12,14,16,18,20,22,24,26,28,-1,-1,-1,-1,-1,-1,-1,-1,-1,-1,-1,-1,-1,-1,-1],"split_conditions":[3.4343193E0,4.2E2,6.2515E1,2.2970822E0,2.2474394E0,4.0774283E0,1.1146948E1,3.1998496E0,6.141086E0,-1.00347E2,5.72E2,3.846072E-6,5.9097E1,2.651403E0,-1.4471933E-2,-5.9046276E-2,-1.4061241E-2,1.750255E-2,-5.46184E-2,2.1486556E-2,-5.3244203E-2,1.3600414E-2,-4.519925E-2,-4.189186E-2,4.0021513E-2,4.5410722E-2,-6.349121E-3,7.4628005E-3,5.4937996E-2],"split_indices":[4,13,11,5,4,4,3,4,9,12,6,7,11,9,0,0,0,0,0,0,0,0,0,0,0,0,0,0,0],"split_type":[0,0,0,0,0,0,0,0,0,0,0,0,0,0,0,0,0,0,0,0,0,0,0,0,0,0,0,0,0],"sum_hessian":[1.7609332E2,1.16150795E2,5.9942528E1,6.04608E1,5.5689995E1,1.540489E1,4.453764E1,4.1676186E1,1.8784616E1,9.835299E0,4.58547E1,6.729313E0,8.675577E0,4.30797E1,1.4579383E0,4.0166645E1,1.5095394E0,1.2287771E1,6.496844E0,1.2497832E0,8.585516E0,4.2687065E1,3.1676311E0,5.6148624E0,1.1144506E0,7.3861246E0,1.2894521E0,2.5571125E0,4.0522587E1],"tree_param":{"num_deleted":"0","num_feature":"14","num_nodes":"29","size_leaf_vector":"1"}},{"base_weights":[5.357911E-3,-2.18578E-1,1.0140225E0,9.303873E-1,-4.567999E-1,1.0791281E0,7.2733423E-4,1.0959891E0,5.906379E-2,-6.091295E-1,5.664341E-1,5.7423985E-1,6.1511375E-2,5.6741644E-2,8.1934845E-3,3.924009E-2,-2.2310486E-2,-4.3709535E-2,-1.0109833E-2,4.7492553E-2,1.1476859E-3,4.13368E-2,-2.6846662E-2],"categories":[],"categories_nodes":[],"categories_segments":[],"categories_sizes":[],"default_left":[0,0,0,0,0,0,0,0,0,0,0,0,0,0,0,0,0,0,0,0,0,0,0],"id":20,"left_children":[1,3,5,7,9,11,-1,13,15,17,19,21,-1,-1,-1,-1,-1,-1,-1,-1,-1,-1,-1],"loss_changes":[4.1031494E1,4.1117783E1,2.1317673E0,3.6667824E0,1.9643322E1,1.6561813E0,0E0,5.9877586E-1,2.252254E0,1.149926E1,3.4292984E0,2.9715044E0,0E0,0E0,0E0,0E0,0E0,0E0,0E0,0E0,0E0,0E0,0E0],"parents":[2147483647,0,0,1,1,2,2,3,3,4,4,5,5,7,7,8,8,9,9,10,10,11,11],"right_children":[2,4,6,8,10,12,-1,14,16,18,20,22,-1,-1,-1,-1,-1,-1,-1,-1,-1,-1,-1],"split_conditions":[3.6061811E0,-3.7777793E0,1.1143469E1,1.7221096E0,1.093E3,1.01067E2,7.2733423E-4,8.727491E-1,-5.6038675E0,2.2970822E0,1.1094756E1,7.5909E1,6.1511375E-2,5.6741644E-2,8.1934845E-3,3.924009E-2,-2.2310486E-2,-4.3709535E-2,-1.0109833E-2,4.7492553E-2,1.1476859E-3,4.13368E-2,-2.6846662E-2],"split_indices":[5,5,3,10,13,11,0,2,5,5,3,11,0,0,0,0,0,0,0,0,0,0,0],"split_type":[0,0,0,0,0,0,0,0,0,0,0,0,0,0,0,0,0,0,0,0,0,0,0],"sum_hessian":[1.7967352E2,1.4767186E2,3.2001663E1,2.4860744E1,1.2281111E2,2.9969746E1,2.0319188E0,2.0673704E1,4.187041E0,1.07249504E2,1.556161E1,8.00891E0,2.1960836E1,1.9637869E1,1.0358359E0,1.4915155E0,2.6955254E0,6.42507E1,4.2998802E1,8.68603E0,6.875579E0,6.734567E0,1.2743429E0],"tree_param":{"num_deleted":"0","num_feature":"14","num_nodes":"23","size_leaf_vector":"1"}},{"base_weights":[5.44404E-2,-5.430405E-1,6.474172E-1,-1.664686E-1,-9.901946E-1,-1.9500117E-1,8.123033E-1,-8.522948E-1,7.624056E-2,-1.0428927E0,1.9708827E-2,-7.88786E-1,7.3739195E-1,5.352547E-1,1.0496094E0,-6.8147825E-3,-5.0666105E-2,-5.511276E-3,3.1721592E-2,-7.657435E-3,-5.5291917E-2,-5.894844E-2,2.1775855E-2,2.50979E-3,6.0884494E-2,7.2920695E-3,3.9580077E-2,1.6047992E-2,5.437399E-2],"categories":[],"categories_nodes":[],"categories_segments":[],"categories_sizes":[],"default_left":[0,0,0,0,0,0,0,0,0,0,0,0,0,0,0,0,0,0,0,0,0,0,0,0,0,0,0,0,0],"id":21,"left_children":[1,3,5,7,9,11,13,15,17,19,-1,21,23,25,27,-1,-1,-1,-1,-1,-1,-1,-1,-1,-1,-1,-1,-1,-1],"loss_changes":[6.3667534E1,1.4915998E1,1.2680477E1,8.357804E0,3.3833275E0,9.197994E0,4.4076653E0,1.3727751E0,3.995486E0,2.044075E0,0E0,5.2862587E0,2.1079934E0,3.5694695E0,7.4570847E-1,0E0,0E0,0E0,0E0,0E0,0E0,0E0,0E0,0E0,0E0,0E0,0E0,0E0,0E0],"parents":[2147483647,0,0,1,1,2,2,3,3,4,4,5,5,6,6,7,7,8,8,9,9,11,11,12,12,13,13,14,14],"right_children":[2,4,6,8,10,12,14,16,18,20,-1,22,24,26,28,-1,-1,-1,-1,-1,-1,-1,-1,-1,-1,-1,-1,-1,-1],"split_conditions":[2.8683815E0,2.2E2,2.64E2,2.18281E0,2.851671E0,2.629E0,4.0615635E0,-1.7811E1,3.2899482E-6,3.107726E0,1.9708827E-2,4.0774283E0,1.4950272E0,4.1932487E0,-1.4551915E-11,-6.8147825E-3,-5.0666105E-2,-5.511276E-3,3.1721592E-2,-7.657435E-3,-5.5291917E-2,-5.894844E-2,2.1775855E-2,2.50979E-3,6.0884494E-2,7.2920695E-3,3.9580077E-2,1.6047992E-2,5.437399E-2],"split_indices":[4,6,13,4,4,12,4,12,8,9,0,4,10,9,1,0,0,0,0,0,0,0,0,0,0,0,0,0,0],"split_type":[0,0,0,0,0,0,0,0,0,0,0,0,0,0,0,0,0,0,0,0,0,0,0,0,0,0,0,0,0],"sum_hessian":[1.7771106E2,8.856129E1,8.9149765E1,4.8819836E1,3.9741455E1,1.4563067E1,7.45867E1,1.2104478E1,3.6715355E1,3.8521736E1,1.2197187E0,8.99116E0,5.5719066E0,3.5913822E1,3.867288E1,2.5614676E0,9.54301E0,2.8123213E1,8.592143E0,2.7720103E0,3.5749725E1,6.8462906E0,2.14487E0,2.7466252E0,2.8252811E0,1.4879489E1,2.1034332E1,2.378789E0,3.629409E1],"tree_param":{"num_deleted":"0","num_feature":"14","num_nodes":"29","size_leaf_vector":"1"}},{"base_weights":[-5.2411962E-2,-5.4404217E-1,3.912332E-1,6.1324096E-1,-7.102391E-1,1.7278251E-1,9.073517E-1,9.7116894E-1,6.888202E-2,-9.8658985E-1,-2.720217E-1,8.3299446E-1,-1.8138957E-1,1.1397047E-1,1.0137329E0,5.2934058E-2,1.4259877E-2,-2.8281385E-2,2.4900516E-2,-6.9287606E-3,-5.3474333E-2,-4.0322553E-2,1.7807813E-2,4.460108E-2,-8.795797E-3,-1.7639596E-2,3.2986235E-2,4.3269075E-2,-3.905436E-2,5.2330226E-2,7.165999E-3],"categories":[],"categories_nodes":[],"categories_segments":[],"categories_sizes":[],"default_left":[0,0,0,0,0,0,0,0,0,0,0,0,0,0,0,0,0,0,0,0,0,0,0,0,0,0,0,0,0,0,0],"id":22,"left_children":[1,3,5,7,9,11,13,15,17,19,21,23,25,27,29,-1,-1,-1,-1,-1,-1,-1,-1,-1,-1,-1,-1,-1,-1,-1,-1],"loss_changes":[3.7526768E1,1.6124294E1,1.0047888E1,2.033442E0,8.425446E0,1.5309897E1,2.1363773E0,8.389759E-2,1.7391144E0,2.9199371E0,1.0071474E1,1.5155478E0,6.434164E0,3.5553188E0,5.195141E-1,0E0,0E0,0E0,0E0,0E0,0E0,0E0,0E0,0E0,0E0,0E0,0E0,0E0,0E0,0E0,0E0],"parents":[2147483647,0,0,1,1,2,2,3,3,4,4,5,5,6,6,7,7,8,8,9,9,10,10,11,11,12,12,13,13,14,14],"right_children":[2,4,6,8,10,12,14,16,18,20,22,24,26,28,30,-1,-1,-1,-1,-1,-1,-1,-1,-1,-1,-1,-1,-1,-1,-1,-1],"split_conditions":[4.65E2,-3.7777793E0,3.4474864E0,-4.852588E0,2.2970822E0,-2.8770294E0,1.01067E2,6.16E2,2.04E2,-3.1916244E0,1.0676E1,3.6334E1,8.7438E1,2.0265861E-6,3.4315624E1,5.2934058E-2,1.4259877E-2,-2.8281385E-2,2.4900516E-2,-6.9287606E-3,-5.3474333E-2,-4.0322553E-2,1.7807813E-2,4.460108E-2,-8.795797E-3,-1.7639596E-2,3.2986235E-2,4.3269075E-2,-3.905436E-2,5.2330226E-2,7.165999E-3],"split_indices":[13,5,5,5,5,5,11,6,13,5,12,12,12,8,9,0,0,0,0,0,0,0,0,0,0,0,0,0,0,0,0],"split_type":[0,0,0,0,0,0,0,0,0,0,0,0,0,0,0,0,0,0,0,0,0,0,0,0,0,0,0,0,0,0,0],"sum_hessian":[1.7007893E2,8.056911E1,8.9509834E1,9.77974E0,7.078937E1,6.382868E1,2.5681154E1,5.427186E0,4.3525543E0,4.2644997E1,2.8144367E1,2.1813744E1,4.2014935E1,3.2812483E0,2.2399906E1,4.331293E0,1.0958924E0,1.6277199E0,2.7248344E0,4.0354056E0,3.8609592E1,1.5053577E1,1.309079E1,2.0717506E1,1.0962374E0,3.5384785E1,6.630148E0,1.801785E0,1.4794633E0,2.138969E1,1.010217E0],"tree_param":{"num_deleted":"0","num_feature":"14","num_nodes":"31","size_leaf_vector":"1"}},{"base_weights":[-3.7567437E-2,-3.7028283E-1,5.176997E-1,6.298941E-1,-5.161023E-1,2.793834E-1,9.476048E-1,8.2105196E-1,-7.565834E-2,-7.8438914E-1,5.6889493E-2,6.7608553E-1,-2.3160763E-1,1.0085005E0,-3.514218E-3,4.8143722E-2,-9.358603E-3,3.9709102E-2,-4.647936E-2,1.1562533E-2,-4.3313373E-2,2.9689629E-2,-1.0943098E-2,5.1928323E-2,9.433444E-3,3.7730355E-2,-3.2922603E-2,8.565265E-3,5.2138638E-2],"categories":[],"categories_nodes":[],"categories_segments":[],"categories_sizes":[],"default_left":[0,0,0,0,0,0,0,0,0,0,0,0,0,0,0,0,0,0,0,0,0,0,0,0,0,0,0,0,0],"id":23,"left_children":[1,3,5,7,9,11,13,15,17,19,21,23,25,27,-1,-1,-1,-1,-1,-1,-1,-1,-1,-1,-1,-1,-1,-1,-1],"loss_changes":[3.164433E1,1.5936566E1,6.31345E0,1.9598436E0,1.4490391E1,8.817613E0,1.4643517E0,1.7753239E0,3.6463606E0,5.5283813E0,4.704759E0,4.098769E0,8.671065E0,4.3185997E-1,0E0,0E0,0E0,0E0,0E0,0E0,0E0,0E0,0E0,0E0,0E0,0E0,0E0,0E0,0E0],"parents":[2147483647,0,0,1,1,2,2,3,3,4,4,5,5,6,6,7,7,8,8,9,9,10,10,11,11,12,12,13,13],"right_children":[2,4,6,8,10,12,14,16,18,20,22,24,26,28,-1,-1,-1,-1,-1,-1,-1,-1,-1,-1,-1,-1,-1,-1,-1],"split_conditions":[6.61E2,-3.7777793E0,3.4474864E0,4.84E2,2.4854267E0,-2.1809697E0,1.1146948E1,9.914E0,-5.4726944E0,-4.7699E1,9.209702E-7,8.8E1,1.6627304E-6,1.21508E2,-3.514218E-3,4.8143722E-2,-9.358603E-3,3.9709102E-2,-4.647936E-2,1.1562533E-2,-4.3313373E-2,2.9689629E-2,-1.0943098E-2,5.1928323E-2,9.433444E-3,3.7730355E-2,-3.2922603E-2,8.565265E-3,5.2138638E-2],"split_indices":[13,5,5,6,5,5,3,12,5,12,7,6,7,11,0,0,0,0,0,0,0,0,0,0,0,0,0,0,0],"split_type":[0,0,0,0,0,0,0,0,0,0,0,0,0,0,0,0,0,0,0,0,0,0,0,0,0,0,0,0,0],"sum_hessian":[1.6924805E2,1.0604134E2,6.3206696E1,1.3070567E1,9.297078E1,4.172594E1,2.1480755E1,1.0155421E1,2.915146E0,6.3070778E1,2.9900002E1,2.3307972E1,1.8417967E1,2.0276903E1,1.2038528E0,8.942498E0,1.2129229E0,1.4787792E0,1.4363668E0,4.5691786E0,5.85016E1,9.754364E0,2.0145638E1,1.2718643E1,1.0589329E1,5.3315845E0,1.3086383E1,1.0333308E0,1.9243572E1],"tree_param":{"num_deleted":"0","num_feature":"14","num_nodes":"29","size_leaf_vector":"1"}},{"base_weights":[2.306072E-2,-3.8649014E-1,7.883267E-1,-1.0452198E0,-8.577734E-2,3.7761468E-1,1.0133922E0,-1.1493156E0,-7.0790954E-2,-8.4985554E-1,8.879626E-2,5.0518644E-1,-5.1219173E-2,1.0583173E-2,1.0311159E0,-2.2877295E-2,-6.0030676E-2,3.8288023E-2,-2.7981222E-2,-5.0402295E-2,3.1075392E-2,7.885332E-2,1.8580435E-3,2.1602444E-3,4.3849703E-2,5.257652E-2,1.2673715E-2],"categories":[],"categories_nodes":[],"categories_segments":[],"categories_sizes":[],"default_left":[0,0,0,0,0,0,0,0,0,0,0,0,0,0,0,0,0,0,0,0,0,0,0,0,0,0,0],"id":24,"left_children":[1,3,5,7,9,11,13,15,17,19,21,23,-1,-1,25,-1,-1,-1,-1,-1,-1,-1,-1,-1,-1,-1,-1],"loss_changes":[5.286273E1,2.1681423E1,5.051586E0,3.4036827E0,1.0286051E1,4.524789E0,3.1295395E-1,5.498924E-1,2.2203832E0,3.9621906E0,4.799443E0,3.604663E0,0E0,0E0,3.0999756E-1,0E0,0E0,0E0,0E0,0E0,0E0,0E0,0E0,0E0,0E0,0E0,0E0],"parents":[2147483647,0,0,1,1,2,2,3,3,4,4,5,5,6,6,7,7,8,8,9,9,10,10,11,11,14,14],"right_children":[2,4,6,8,10,12,14,16,18,20,22,24,-1,-1,26,-1,-1,-1,-1,-1,-1,-1,-1,-1,-1,-1,-1],"split_conditions":[3.4570065E0,2.2978652E0,8.6177E1,3.1949603E-6,3.85433E-7,8.0636E1,3.5597853E-7,-9.3995047E-1,4.697371E-6,2.8893E1,2.3029737E0,4.0774283E0,-5.1219173E-2,1.0583173E-2,3.4315624E1,-2.2877295E-2,-6.0030676E-2,3.8288023E-2,-2.7981222E-2,-5.0402295E-2,3.1075392E-2,7.885332E-2,1.8580435E-3,2.1602444E-3,4.3849703E-2,5.257652E-2,1.2673715E-2],"split_indices":[4,4,11,8,8,11,7,2,7,12,4,4,0,0,9,0,0,0,0,0,0,0,0,0,0,0,0],"split_type":[0,0,0,0,0,0,0,0,0,0,0,0,0,0,0,0,0,0,0,0,0,0,0,0,0,0,0],"sum_hessian":[1.6669456E2,1.08905876E2,5.778869E1,3.335779E1,7.554808E1,2.1405163E1,3.6383526E1,2.9976051E1,3.3817425E0,1.3331268E1,6.2216812E1,2.020621E1,1.1989534E0,1.0668536E0,3.531667E1,2.7541943E0,2.7221857E1,1.0383263E0,2.3434162E0,1.23214445E1,1.0098236E0,1.0956247E0,6.112119E1,9.508202E0,1.0698009E1,3.407007E1,1.2466028E0],"tree_param":{"num_deleted":"0","num_feature":"14","num_nodes":"27","size_leaf_vector":"1"}},{"base_weights":[4.8490804E-2,-4.6088004E-1,5.822255E-1,-7.9072595E-2,-9.86412E-1,2.5883797E-1,9.559416E-1,-2.5542182E-1,8.125864E-1,-2.7215686E-1,-1.0940598E0,3.7593985E-1,-1.043888E0,-2.5816856E-2,1.0140556E0,-5.319194E-2,-4.695562E-3,-1.0243303E-2,5.7524353E-2,-4.6555173E-2,4.272534E-2,-5.68539E-2,-1.0300094E-3,-2.8540557E-2,2.6469642E-2,-6.35229E-2,-1.2853052E-2,3.1887215E-2,5.590251E-2],"categories":[],"categories_nodes":[],"categories_segments":[],"categories_sizes":[],"default_left":[0,0,0,0,0,0,0,0,0,0,0,0,0,0,0,0,0,0,0,0,0,0,0,0,0,0,0,0,0],"id":25,"left_children":[1,3,5,7,9,11,13,15,17,19,21,23,25,-1,27,-1,-1,-1,-1,-1,-1,-1,-1,-1,-1,-1,-1,-1,-1],"loss_changes":[4.5519478E1,1.7122763E1,9.628897E0,8.185891E0,2.4691048E0,7.2849445E0,3.7354164E0,5.5303974E0,3.1982474E0,5.28299E0,1.4053917E0,6.431662E0,3.8492584E-1,0E0,7.134514E-1,0E0,0E0,0E0,0E0,0E0,0E0,0E0,0E0,0E0,0E0,0E0,0E0,0E0,0E0],"parents":[2147483647,0,0,1,1,2,2,3,3,4,4,5,5,6,6,7,7,8,8,9,9,10,10,11,11,12,12,14,14],"right_children":[2,4,6,8,10,12,14,16,18,20,22,24,26,-1,28,-1,-1,-1,-1,-1,-1,-1,-1,-1,-1,-1,-1,-1,-1],"split_conditions":[2.8683815E0,2.2E2,4.1790314E0,1.081E3,-9.3995047E-1,9.8332304E-1,7.2992606E-8,2.0965447E0,-4.8629776E-1,1.2721674E-6,9.984047E-1,2.5272E1,1.5280136E0,-2.5816856E-2,1.0363576E0,-5.319194E-2,-4.695562E-3,-1.0243303E-2,5.7524353E-2,-4.6555173E-2,4.272534E-2,-5.68539E-2,-1.0300094E-3,-2.8540557E-2,2.6469642E-2,-6.35229E-2,-1.2853052E-2,3.1887215E-2,5.590251E-2],"split_indices":[4,6,4,13,2,2,8,4,2,8,2,11,10,0,10,0,0,0,0,0,0,0,0,0,0,0,0,0,0],"split_type":[0,0,0,0,0,0,0,0,0,0,0,0,0,0,0,0,0,0,0,0,0,0,0,0,0,0,0,0,0],"sum_hessian":[1.6544472E2,8.472436E1,8.072037E1,4.973879E1,3.498557E1,4.4181454E1,3.653891E1,4.2121655E1,7.617131E0,5.044299E0,2.9941269E1,4.1190285E1,2.9911695E0,1.0880854E0,3.5450825E1,6.0837164E0,3.603794E1,1.9971684E0,5.6199627E0,3.2923133E0,1.7519857E0,2.873064E1,1.2106286E0,5.3657446E0,3.582454E1,1.8451823E0,1.1459872E0,9.220029E0,2.6230797E1],"tree_param":{"num_deleted":"0","num_feature":"14","num_nodes":"29","size_leaf_vector":"1"}},{"base_weights":[-2.1782668E-2,-4.1038966E-1,7.2359663E-1,-8.116891E-1,-8.074733E-2,4.5396748E-1,1.0313088E0,-8.988727E-1,5.9784174E-1,5.4638225E-1,-2.6697525E-1,1.4353508E-1,9.374645E-1,1.0945299E0,-1.7170403E-3,-3.2254085E-2,-5.817753E-2,-1.2152373E-2,5.93505E-2,8.908329E-3,5.251208E-2,-2.0070199E-2,4.3890562E-2,3.5923965E-2,-1.2494907E-2,4.9804535E-2,1.0934569E-2,5.6087174E-2,1.3304383E-2],"categories":[],"categories_nodes":[],"categories_segments":[],"categories_sizes":[],"default_left":[0,0,0,0,0,0,0,0,0,0,0,0,0,0,0,0,0,0,0,0,0,0,0,0,0,0,0,0,0],"id":26,"left_children":[1,3,5,7,9,11,13,15,17,19,21,23,25,27,-1,-1,-1,-1,-1,-1,-1,-1,-1,-1,-1,-1,-1,-1,-1],"loss_changes":[4.670804E1,1.3950912E1,4.117468E0,6.3959446E0,7.0693884E0,4.55498E0,1.7236156E0,2.2921066E0,1.9618355E0,2.3920345E0,7.489972E0,4.7507005E0,2.893448E-1,2.3481178E-1,0E0,0E0,0E0,0E0,0E0,0E0,0E0,0E0,0E0,0E0,0E0,0E0,0E0,0E0,0E0],"parents":[2147483647,0,0,1,1,2,2,3,3,4,4,5,5,6,6,7,7,8,8,9,9,10,10,11,11,12,12,13,13],"right_children":[2,4,6,8,10,12,14,16,18,20,22,24,26,28,-1,-1,-1,-1,-1,-1,-1,-1,-1,-1,-1,-1,-1,-1,-1],"split_conditions":[3.4343193E0,2.4488552E0,4.864535E0,5.139595E-6,1.05644E0,2.5808E1,1.1146275E1,2.64E2,3.8227398E0,1.0128734E0,3.76267E2,8.8E1,4.67521E2,1.32E3,-1.7170403E-3,-3.2254085E-2,-5.817753E-2,-1.2152373E-2,5.93505E-2,8.908329E-3,5.251208E-2,-2.0070199E-2,4.3890562E-2,3.5923965E-2,-1.2494907E-2,4.9804535E-2,1.0934569E-2,5.6087174E-2,1.3304383E-2],"split_indices":[4,4,4,8,10,12,3,6,9,10,11,6,11,6,0,0,0,0,0,0,0,0,0,0,0,0,0,0,0],"split_type":[0,0,0,0,0,0,0,0,0,0,0,0,0,0,0,0,0,0,0,0,0,0,0,0,0,0,0,0,0],"sum_hessian":[1.5922627E2,1.0495626E2,5.427001E1,4.6674004E1,5.8282253E1,3.0244192E1,2.4025822E1,4.4296432E1,2.3775747E0,1.290162E1,4.5380634E1,1.9208267E1,1.1035925E1,2.2654701E1,1.371121E0,2.4367996E1,1.9928434E1,1.221568E0,1.1560066E0,8.23625E0,4.66537E0,4.119285E1,4.1877837E0,7.4682903E0,1.1739976E1,9.846945E0,1.1889802E0,2.1591402E1,1.0633001E0],"tree_param":{"num_deleted":"0","num_feature":"14","num_nodes":"29","size_leaf_vector":"1"}},{"base_weights":[-8.594562E-3,-5.3771144E-1,5.2728087E-1,-7.7801603E-1,-1.2285106E-1,1.16790555E-1,7.966054E-1,2.7189487E-1,-9.7070235E-1,3.6736473E-1,-7.4869186E-1,-2.3385306E-1,5.3218406E-1,8.390492E-1,-1.8654969E-2,4.931453E-2,-1.5151565E-2,-5.3658124E-2,-1.4670541E-3,-2.7073437E-2,4.031589E-2,-5.2927524E-2,-3.6018111E-3,-3.0434782E-2,3.1957988E-2,3.3659335E-2,-3.141493E-2,2.6292587E-2,5.25566E-2],"categories":[],"categories_nodes":[],"categories_segments":[],"categories_sizes":[],"default_left":[0,0,0,0,0,0,0,0,0,0,0,0,0,0,0,0,0,0,0,0,0,0,0,0,0,0,0,0,0],"id":27,"left_children":[1,3,5,7,9,11,13,15,17,19,21,23,25,27,-1,-1,-1,-1,-1,-1,-1,-1,-1,-1,-1,-1,-1,-1,-1],"loss_changes":[4.6061417E1,8.052599E0,8.830755E0,1.06961E1,9.83664E0,4.952938E0,2.7242851E0,3.9040296E0,4.1920776E0,7.6762476E0,2.8629565E0,6.498934E0,2.9558601E0,2.5808067E0,0E0,0E0,0E0,0E0,0E0,0E0,0E0,0E0,0E0,0E0,0E0,0E0,0E0,0E0,0E0],"parents":[2147483647,0,0,1,1,2,2,3,3,4,4,5,5,6,6,7,7,8,8,9,9,10,10,11,11,12,12,13,13],"right_children":[2,4,6,8,10,12,14,16,18,20,22,24,26,28,-1,-1,-1,-1,-1,-1,-1,-1,-1,-1,-1,-1,-1,-1,-1],"split_conditions":[2.8938568E0,2.2970822E0,8.6177E1,-5.0436E1,1.7837299E-6,3.7877042E0,1.1146948E1,8.8E1,2.8358897E-6,4.4036847E-7,3.4307975E-6,1.1293E1,7.5909E1,3.909638E0,-1.8654969E-2,4.931453E-2,-1.5151565E-2,-5.3658124E-2,-1.4670541E-3,-2.7073437E-2,4.031589E-2,-5.2927524E-2,-3.6018111E-3,-3.0434782E-2,3.1957988E-2,3.3659335E-2,-3.141493E-2,2.6292587E-2,5.25566E-2],"split_indices":[4,5,11,12,7,4,3,6,8,8,8,12,11,4,0,0,0,0,0,0,0,0,0,0,0,0,0,0,0],"split_type":[0,0,0,0,0,0,0,0,0,0,0,0,0,0,0,0,0,0,0,0,0,0,0,0,0,0,0,0,0],"sum_hessian":[1.6045085E2,8.073282E1,7.9718025E1,5.0566944E1,3.0165874E1,3.2150135E1,4.7567894E1,7.777539E0,4.2789402E1,1.7147438E1,1.3018436E1,1.767081E1,1.4479322E1,4.617507E1,1.3928217E0,3.1490557E0,4.6284833E0,3.846299E1,4.3264155E0,5.50859E0,1.1638847E1,8.542303E0,4.4761333E0,1.2574503E1,5.0963078E0,1.3285051E1,1.1942711E0,2.00481E1,2.6126974E1],"tree_param":{"num_deleted":"0","num_feature":"14","num_nodes":"29","size_leaf_vector":"1"}},{"base_weights":[-8.569127E-3,-5.055181E-1,4.8666832E-1,-1.5611836E-1,-9.428373E-1,4.1332535E-2,7.8763217E-1,-6.0042036E-1,8.936263E-2,1.5878474E-2,-1.0115242E0,-3.4364355E-1,5.345853E-1,8.3740884E-1,-3.4998756E-2,2.3878532E-2,-4.5442503E-2,1.5712963E-2,-4.773107E-2,-5.4872323E-2,1.1564078E-3,-3.6238283E-2,4.095259E-2,3.605105E-2,-4.3846283E-2,3.210428E-2,5.5839073E-2],"categories":[],"categories_nodes":[],"categories_segments":[],"categories_sizes":[],"default_left":[0,0,0,0,0,0,0,0,0,0,0,0,0,0,0,0,0,0,0,0,0,0,0,0,0,0,0],"id":28,"left_children":[1,3,5,7,9,11,13,15,17,-1,19,21,23,25,-1,-1,-1,-1,-1,-1,-1,-1,-1,-1,-1,-1,-1],"loss_changes":[3.786188E1,1.1584757E1,1.0296175E1,4.8394165E0,3.2561932E0,6.285438E0,3.987196E0,5.669078E0,7.140234E0,0E0,2.9046936E0,8.860626E0,4.4419684E0,1.732933E0,0E0,0E0,0E0,0E0,0E0,0E0,0E0,0E0,0E0,0E0,0E0,0E0,0E0],"parents":[2147483647,0,0,1,1,2,2,3,3,4,4,5,5,6,6,7,7,8,8,10,10,11,11,12,12,13,13],"right_children":[2,4,6,8,10,12,14,16,18,-1,20,22,24,26,-1,-1,-1,-1,-1,-1,-1,-1,-1,-1,-1,-1,-1],"split_conditions":[2.8683815E0,2.2E2,4.88E2,2.2978652E0,9.9617195E-1,2.629E0,1.1146948E1,-2.1214807E0,2.735743E0,1.5878474E-2,9.7782594E-1,4.864535E0,9.7782594E-1,4.696958E0,-3.4998756E-2,2.3878532E-2,-4.5442503E-2,1.5712963E-2,-4.773107E-2,-5.4872323E-2,1.1564078E-3,-3.6238283E-2,4.095259E-2,3.605105E-2,-4.3846283E-2,3.210428E-2,5.5839073E-2],"split_indices":[4,6,13,4,10,12,3,5,4,0,2,4,2,4,0,0,0,0,0,0,0,0,0,0,0,0,0],"split_type":[0,0,0,0,0,0,0,0,0,0,0,0,0,0,0,0,0,0,0,0,0,0,0,0,0,0,0],"sum_hessian":[1.5184306E2,7.5780205E1,7.606285E1,4.287882E1,3.290139E1,3.1132893E1,4.4929962E1,1.4745211E1,2.8133608E1,1.5130703E0,3.1388319E1,1.7655983E1,1.3476909E1,4.3898167E1,1.0317945E0,3.158291E0,1.1586919E1,2.3722296E1,4.411312E0,2.892552E1,2.4627979E0,1.3580918E1,4.0750647E0,1.233664E1,1.140268E0,2.7776533E1,1.6121634E1],"tree_param":{"num_deleted":"0","num_feature":"14","num_nodes":"27","size_leaf_vector":"1"}},{"base_weights":[3.24313E-2,-3.910629E-1,3.7390402E-1,4.250758E-1,-5.180882E-1,9.4580483E-1,1.904772E-1,6.8606675E-1,-2.5061032E-1,-9.0820515E-1,-2.1089593E-2,1.8071368E-1,1.0919656E0,-1.3541122E-1,7.476389E-1,4.4218116E-2,-8.627291E-3,3.3036735E-2,-4.6226762E-2,-1.2061036E-2,-5.0430167E-2,-3.144332E-2,7.8447955E-3,4.218711E-2,-4.071245E-2,5.7258554E-2,7.5991065E-3,-1.5809877E-2,3.878406E-2,5.1665545E-2,6.7322985E-3],"categories":[],"categories_nodes":[],"categories_segments":[],"categories_sizes":[],"default_left":[0,0,0,0,0,0,0,0,0,0,0,0,0,0,0,0,0,0,0,0,0,0,0,0,0,0,0,0,0,0,0],"id":29,"left_children":[1,3,5,7,9,11,13,15,17,19,21,23,25,27,29,-1,-1,-1,-1,-1,-1,-1,-1,-1,-1,-1,-1,-1,-1,-1,-1],"loss_changes":[2.2398655E1,7.3919134E0,8.80987E0,1.9118158E0,1.1674522E1,2.1017494E0,1.2110432E1,1.4098997E0,2.749139E0,2.017767E0,3.078506E0,3.6529422E0,6.7933464E-1,7.2583756E0,4.162076E0,0E0,0E0,0E0,0E0,0E0,0E0,0E0,0E0,0E0,0E0,0E0,0E0,0E0,0E0,0E0,0E0],"parents":[2147483647,0,0,1,1,2,2,3,3,4,4,5,5,6,6,7,7,8,8,9,9,10,10,11,11,12,12,13,13,14,14],"right_children":[2,4,6,8,10,12,14,16,18,20,22,24,26,28,30,-1,-1,-1,-1,-1,-1,-1,-1,-1,-1,-1,-1,-1,-1,-1,-1],"split_conditions":[6.5219E1,-3.7777793E0,-2.8770294E0,4.84E2,2.2498038E0,1.106426E1,3.3942482E0,1.6870569E-6,-5.5763845E0,8.8E1,0E0,-3.461782E0,1.1132403E1,5.139595E-6,1.1114747E1,4.4218116E-2,-8.627291E-3,3.3036735E-2,-4.6226762E-2,-1.2061036E-2,-5.0430167E-2,-3.144332E-2,7.8447955E-3,4.218711E-2,-4.071245E-2,5.7258554E-2,7.5991065E-3,-1.5809877E-2,3.878406E-2,5.1665545E-2,6.7322985E-3],"split_indices":[11,5,5,6,5,3,5,7,5,6,1,5,3,8,3,0,0,0,0,0,0,0,0,0,0,0,0,0,0,0,0],"split_type":[0,0,0,0,0,0,0,0,0,0,0,0,0,0,0,0,0,0,0,0,0,0,0,0,0,0,0,0,0,0,0],"sum_hessian":[1.5287714E2,6.817783E1,8.469931E1,8.866179E0,5.9311653E1,1.9559391E1,6.513992E1,6.38467E0,2.4815097E0,3.2765297E1,2.6546356E1,3.4959483E0,1.6063442E1,4.157773E1,2.3562193E1,5.162424E0,1.2222455E0,1.063252E0,1.4182576E0,4.731923E0,2.8033373E1,5.4392858E0,2.110707E1,2.1891303E0,1.3068181E0,1.4996323E1,1.0671195E0,3.5238388E1,6.3393383E0,1.5604413E1,7.9577794E0],"tree_param":{"num_deleted":"0","num_feature":"14","num_nodes":"31","size_leaf_vector":"1"}},{"base_weights":[1.2749107E-2,-1.5892237E-1,7.242692E-1,5.641862E-1,-3.9914706E-1,1.1824165E-1,8.718353E-1,-6.823776E-1,7.1241647E-1,-6.4792305E-1,-9.103785E-2,-4.9182914E-2,7.9194957E-1,5.4927915E-2,3.214788E-1,1.4131288E-2,-5.8079153E-2,4.1041568E-2,-1.3472244E-2,3.8874745E-3,-4.423549E-2,1.8871624E-2,-3.5437472E-2,7.1825953E-3,4.6628267E-2,-1.1971169E-2,4.0407788E-2],"categories":[],"categories_nodes":[],"categories_segments":[],"categories_sizes":[],"default_left":[0,0,0,0,0,0,0,0,0,0,0,0,0,0,0,0,0,0,0,0,0,0,0,0,0,0,0],"id":30,"left_children":[1,3,5,7,9,11,13,15,17,19,21,-1,23,-1,25,-1,-1,-1,-1,-1,-1,-1,-1,-1,-1,-1,-1],"loss_changes":[1.8841892E1,2.1822788E1,2.578024E0,6.291666E0,7.1394997E0,5.9959598E0,2.635624E0,2.1085634E0,3.2623034E0,8.96892E0,1.2744748E1,0E0,3.141005E-1,0E0,2.4871154E0,0E0,0E0,0E0,0E0,0E0,0E0,0E0,0E0,0E0,0E0,0E0,0E0],"parents":[2147483647,0,0,1,1,2,2,3,3,4,4,5,5,6,6,7,7,8,8,9,9,10,10,12,12,14,14],"right_children":[2,4,6,8,10,12,14,16,18,20,22,-1,24,-1,26,-1,-1,-1,-1,-1,-1,-1,-1,-1,-1,-1,-1],"split_conditions":[3.4474864E0,-3.0929601E0,2.409E0,4.013954E-7,2.2970822E0,4.0831966E0,1.1116289E1,-5.3764086E0,8.727491E-1,-3.0716E1,1.6627304E-6,-4.9182914E-2,3.1484182E0,5.4927915E-2,4.2161303E0,1.4131288E-2,-5.8079153E-2,4.1041568E-2,-1.3472244E-2,3.8874745E-3,-4.423549E-2,1.8871624E-2,-3.5437472E-2,7.1825953E-3,4.6628267E-2,-1.1971169E-2,4.0407788E-2],"split_indices":[5,5,12,7,5,5,3,5,2,12,7,0,9,0,9,0,0,0,0,0,0,0,0,0,0,0,0],"split_type":[0,0,0,0,0,0,0,0,0,0,0,0,0,0,0,0,0,0,0,0,0,0,0,0,0,0,0],"sum_hessian":[1.5231264E2,1.2333237E2,2.8980278E1,3.0418879E1,9.291349E1,6.0275364E0,2.2952742E1,2.8497756E0,2.7569103E1,5.0796265E1,4.2117226E1,2.1124306E0,3.9151056E0,1.5550516E1,7.402226E0,1.0817049E0,1.7680707E0,2.4975384E1,2.5937197E0,1.2662267E1,3.8133995E1,2.4173277E1,1.7943947E1,1.0581559E0,2.8569498E0,3.6748977E0,3.727328E0],"tree_param":{"num_deleted":"0","num_feature":"14","num_nodes":"27","size_leaf_vector":"1"}},{"base_weights":[-1.7278928E-2,-3.4399354E-1,6.4455795E-1,-8.45703E-1,-1.339651E-1,3.8835588E-1,9.9146986E-1,-1.0471302E0,-2.9159877E-1,7.971486E-2,-1.950756E-1,7.1990184E-2,8.841011E-1,1.2608944E-2,1.0173607E0,-5.5786785E-2,6.007241E-3,4.9709193E-2,-3.359273E-2,-1.6908318E-2,2.9583389E-2,3.475909E-2,-1.3832902E-2,4.6887606E-2,9.780695E-3,5.264309E-2,1.596088E-2],"categories":[],"categories_nodes":[],"categories_segments":[],"categories_sizes":[],"default_left":[0,0,0,0,0,0,0,0,0,0,0,0,0,0,0,0,0,0,0,0,0,0,0,0,0,0,0],"id":31,"left_children":[1,3,5,7,9,11,13,15,17,-1,19,21,23,-1,25,-1,-1,-1,-1,-1,-1,-1,-1,-1,-1,-1,-1],"loss_changes":[3.308839E1,1.0678458E1,4.1107388E0,3.046751E0,8.06114E0,4.7573967E0,1.4240837E-1,1.8670521E0,5.260428E0,0E0,8.279176E0,4.505906E0,2.5561333E-1,0E0,1.5486526E-1,0E0,0E0,0E0,0E0,0E0,0E0,0E0,0E0,0E0,0E0,0E0,0E0],"parents":[2147483647,0,0,1,1,2,2,3,3,4,4,5,5,6,6,7,7,8,8,10,10,11,11,12,12,14,14],"right_children":[2,4,6,8,10,12,14,16,18,-1,20,22,24,-1,26,-1,-1,-1,-1,-1,-1,-1,-1,-1,-1,-1,-1],"split_conditions":[3.4343193E0,2.2978652E0,4.864535E0,1.3449172E-6,2.3029737E0,3.2299E1,1.2422007E-7,8.7438E1,-2.1809697E0,7.971486E-2,1.093E3,8.8E1,2E-1,1.2608944E-2,1.11395035E1,-5.5786785E-2,6.007241E-3,4.9709193E-2,-3.359273E-2,-1.6908318E-2,2.9583389E-2,3.475909E-2,-1.3832902E-2,4.6887606E-2,9.780695E-3,5.264309E-2,1.596088E-2],"split_indices":[4,4,4,8,4,12,8,12,5,0,13,6,0,0,3,0,0,0,0,0,0,0,0,0,0,0,0],"split_type":[0,0,0,0,0,0,0,0,0,0,0,0,0,0,0,0,0,0,0,0,0,0,0,0,0,0,0],"sum_hessian":[1.5099739E2,1.0141453E2,4.958286E1,2.9033525E1,7.2381004E1,2.9739239E1,1.984362E1,2.0640535E1,8.392991E0,1.6151208E0,7.0765884E1,1.8853115E1,1.0886123E1,1.0348363E0,1.8808784E1,1.9536453E1,1.1040814E0,1.5471166E0,6.845875E0,6.0358253E1,1.0407626E1,6.4069934E0,1.2446121E1,9.763264E0,1.1228591E0,1.7415123E1,1.3936617E0],"tree_param":{"num_deleted":"0","num_feature":"14","num_nodes":"27","size_leaf_vector":"1"}},{"base_weights":[2.1571051E-2,-2.4866176E-1,6.2584555E-1,-8.122678E-1,-3.771169E-2,1.6099362E-1,9.029264E-1,4.695489E-2,-9.892599E-1,-2.1738757E-1,5.1244915E-1,3.0699155E-1,-5.3622633E-2,9.9107915E-1,-3.8328886E-2,8.85049E-2,-4.6550088E-2,-5.561924E-2,-1.0000235E-2,-2.5962612E-3,-5.2732926E-2,6.2402714E-2,7.982373E-3,4.6308865E-3,4.6732727E-2,8.882617E-3,5.093787E-2],"categories":[],"categories_nodes":[],"categories_segments":[],"categories_sizes":[],"default_left":[0,0,0,0,0,0,0,0,0,0,0,0,0,0,0,0,0,0,0,0,0,0,0,0,0,0,0],"id":32,"left_children":[1,3,5,7,9,11,13,15,17,19,21,23,-1,25,-1,-1,-1,-1,-1,-1,-1,-1,-1,-1,-1,-1,-1],"loss_changes":[2.4360592E1,1.22319565E1,5.7909317E0,4.310871E0,7.633785E0,3.6479738E0,4.977598E0,1.1328097E1,2.0414581E0,7.989547E0,4.7400594E0,2.2353249E0,0E0,4.4171906E-1,0E0,0E0,0E0,0E0,0E0,0E0,0E0,0E0,0E0,0E0,0E0,0E0,0E0],"parents":[2147483647,0,0,1,1,2,2,3,3,4,4,5,5,6,6,7,7,8,8,9,9,10,10,11,11,13,13],"right_children":[2,4,6,8,10,12,14,16,18,20,22,24,-1,26,-1,-1,-1,-1,-1,-1,-1,-1,-1,-1,-1,-1,-1],"split_conditions":[3.4570065E0,2.2978652E0,8.6177E1,8.8E1,8.76E2,7.7088E1,1.1146948E1,-2.1214807E0,2.516E1,1.891117E0,1.7372637E-6,5.4961047E0,-5.3622633E-2,8.935518E-1,-3.8328886E-2,8.85049E-2,-4.6550088E-2,-5.561924E-2,-1.0000235E-2,-2.5962612E-3,-5.2732926E-2,6.2402714E-2,7.982373E-3,4.6308865E-3,4.6732727E-2,8.882617E-3,5.093787E-2],"split_indices":[4,4,11,6,13,11,3,5,12,10,7,4,0,10,0,0,0,0,0,0,0,0,0,0,0,0,0],"split_type":[0,0,0,0,0,0,0,0,0,0,0,0,0,0,0,0,0,0,0,0,0,0,0,0,0,0,0],"sum_hessian":[1.4722864E2,1.02139946E2,4.50887E1,2.704144E1,7.509851E1,1.742919E1,2.7659508E1,4.7443438E0,2.2297094E1,5.706623E1,1.8032276E1,1.625613E1,1.1730603E0,2.6658268E1,1.0012407E0,1.4244647E0,3.3198793E0,1.8933962E1,3.3631327E0,4.853643E1,8.529802E0,5.0225377E0,1.3009738E1,1.2972891E1,3.2832391E0,1.1213601E0,2.5536907E1],"tree_param":{"num_deleted":"0","num_feature":"14","num_nodes":"27","size_leaf_vector":"1"}},{"base_weights":[2.789829E-2,-2.597602E-1,6.1949044E-1,-7.643773E-1,-6.3793264E-2,3.344393E-1,9.506695E-1,-2.936921E-1,-1.0129272E0,-4.6846938E-1,1.6659527E-1,5.755151E-1,-2.0857091E-1,1.0187E0,-3.583554E-3,4.366658E-2,-3.463529E-2,-5.454172E-2,7.3297233E-3,9.665354E-3,-3.750035E-2,1.5640132E-2,-4.4455066E-2,3.467445E-2,-3.0993123E-2,-3.702753E-2,1.9756833E-2,5.2463967E-2,1.2817745E-2],"categories":[],"categories_nodes":[],"categories_segments":[],"categories_sizes":[],"default_left":[0,0,0,0,0,0,0,0,0,0,0,0,0,0,0,0,0,0,0,0,0,0,0,0,0,0,0,0,0],"id":33,"left_children":[1,3,5,7,9,11,13,15,17,19,21,23,25,27,-1,-1,-1,-1,-1,-1,-1,-1,-1,-1,-1,-1,-1,-1,-1],"loss_changes":[2.5447062E1,9.907296E0,4.2991104E0,2.9865093E0,6.940796E0,3.7627952E0,1.6087303E0,5.777963E0,1.7825127E0,5.1691713E0,7.6317945E0,3.1850986E0,3.2761192E0,2.1517372E-1,0E0,0E0,0E0,0E0,0E0,0E0,0E0,0E0,0E0,0E0,0E0,0E0,0E0,0E0,0E0],"parents":[2147483647,0,0,1,1,2,2,3,3,4,4,5,5,6,6,7,7,8,8,9,9,10,10,11,11,12,12,13,13],"right_children":[2,4,6,8,10,12,14,16,18,20,22,24,26,28,-1,-1,-1,-1,-1,-1,-1,-1,-1,-1,-1,-1,-1,-1,-1],"split_conditions":[3.4711912E0,2.2978652E0,4.696958E0,1.1738765E0,-2.8113505E-1,1.1117034E1,1.1146275E1,-1.7811E1,6.2773E1,1.0714767E0,6.16E2,8.3555555E-1,1.01067E2,3.6620514E0,-3.583554E-3,4.366658E-2,-3.463529E-2,-5.454172E-2,7.3297233E-3,9.665354E-3,-3.750035E-2,1.5640132E-2,-4.4455066E-2,3.467445E-2,-3.0993123E-2,-3.702753E-2,1.9756833E-2,5.2463967E-2,1.2817745E-2],"split_indices":[4,4,4,10,2,3,3,12,12,10,6,2,11,10,0,0,0,0,0,0,0,0,0,0,0,0,0,0,0],"split_type":[0,0,0,0,0,0,0,0,0,0,0,0,0,0,0,0,0,0,0,0,0,0,0,0,0,0,0,0,0],"sum_hessian":[1.4758775E2,9.967987E1,4.7907883E1,2.7071053E1,7.260881E1,2.6827162E1,2.108072E1,1.0109004E1,1.696205E1,2.5966108E1,4.6642708E1,1.8537403E1,8.28976E0,1.9768791E1,1.311931E0,2.272815E0,7.836189E0,1.5949645E1,1.0124043E0,7.8432703E0,1.8122837E1,4.1586884E1,5.055823E0,1.7254395E1,1.2830087E0,4.286169E0,4.00359E0,1.8644535E1,1.1242564E0],"tree_param":{"num_deleted":"0","num_feature":"14","num_nodes":"29","size_leaf_vector":"1"}},{"base_weights":[-5.688835E-3,-2.829378E-1,5.7191247E-1,-7.871314E-1,-9.139291E-2,2.975593E-1,9.248557E-1,-1.0156093E0,-3.3269155E-1,-7.6172125E-1,5.9852116E-2,-8.3607845E-3,6.745526E-1,9.9824494E-1,-3.4786467E-3,-1.6950881E-2,-5.516377E-2,3.2624006E-2,-3.9954852E-2,-5.665012E-2,2.4291595E-2,8.223801E-2,-5.121987E-4,3.0052556E-2,-1.7195044E-2,1.2288812E-3,4.8323814E-2,1.2058312E-2,5.1440608E-2],"categories":[],"categories_nodes":[],"categories_segments":[],"categories_sizes":[],"default_left":[0,0,0,0,0,0,0,0,0,0,0,0,0,0,0,0,0,0,0,0,0,0,0,0,0,0,0,0,0],"id":34,"left_children":[1,3,5,7,9,11,13,15,17,19,21,23,25,27,-1,-1,-1,-1,-1,-1,-1,-1,-1,-1,-1,-1,-1,-1,-1],"loss_changes":[2.3189024E1,9.3758335E0,4.272683E0,2.4449234E0,7.347854E0,3.2233481E0,1.5339565E0,6.5493965E-1,5.324888E0,6.725849E0,6.6485686E0,3.5580847E0,2.3500147E0,1.858654E-1,0E0,0E0,0E0,0E0,0E0,0E0,0E0,0E0,0E0,0E0,0E0,0E0,0E0,0E0,0E0],"parents":[2147483647,0,0,1,1,2,2,3,3,4,4,5,5,6,6,7,7,8,8,9,9,10,10,11,11,12,12,13,13],"right_children":[2,4,6,8,10,12,14,16,18,20,22,24,26,28,-1,-1,-1,-1,-1,-1,-1,-1,-1,-1,-1,-1,-1,-1,-1],"split_conditions":[3.4570065E0,2.2978652E0,4.864535E0,3.8765255E-1,3.7582268E-7,1.3031E1,1.1146275E1,-9.3995047E-1,3.9889152E0,2.7153971E0,2.3029737E0,8.8E1,3.5531092E0,1.0487673E-7,-3.4786467E-3,-1.6950881E-2,-5.516377E-2,3.2624006E-2,-3.9954852E-2,-5.665012E-2,2.4291595E-2,8.223801E-2,-5.121987E-4,3.0052556E-2,-1.7195044E-2,1.2288812E-3,4.8323814E-2,1.2058312E-2,5.1440608E-2],"split_indices":[4,4,4,2,8,12,3,2,9,5,4,6,9,8,0,0,0,0,0,0,0,0,0,0,0,0,0,0,0],"split_type":[0,0,0,0,0,0,0,0,0,0,0,0,0,0,0,0,0,0,0,0,0,0,0,0,0,0,0,0,0],"sum_hessian":[1.4279482E2,9.682764E1,4.596717E1,2.5801722E1,7.102592E1,2.6900051E1,1.9067122E1,1.6347742E1,9.453979E0,1.2332241E1,5.8693676E1,1.5389613E1,1.1510438E1,1.7753098E1,1.3140234E0,2.4335096E0,1.3914232E1,2.9094648E0,6.544514E0,9.574592E0,2.7576497E0,1.5344574E0,5.715922E1,5.183672E0,1.020594E1,3.9034667E0,7.6069713E0,1.0339638E0,1.6719135E1],"tree_param":{"num_deleted":"0","num_feature":"14","num_nodes":"29","size_leaf_vector":"1"}},{"base_weights":[3.7909485E-2,-4.8612237E-1,2.2620508E-1,-7.249837E-1,2.7980405E-1,7.753531E-1,5.1144965E-2,4.370565E-1,-8.685958E-1,-6.7499375E-1,8.0349755E-1,-1.7990719E-1,8.835684E-1,-2.700534E-1,4.7486886E-1,4.654064E-2,-1.4634453E-2,7.781197E-4,-4.814242E-2,1.4108093E-2,-5.566829E-2,-1.37181E-2,7.814079E-2,-4.5675438E-2,3.180277E-2,-1.0101478E-2,4.9541693E-2,1.1684089E-2,-2.5863482E-2,4.283635E-2,-2.8235053E-3],"categories":[],"categories_nodes":[],"categories_segments":[],"categories_sizes":[],"default_left":[0,0,0,0,0,0,0,0,0,0,0,0,0,0,0,0,0,0,0,0,0,0,0,0,0,0,0,0,0,0,0],"id":35,"left_children":[1,3,5,7,9,11,13,15,17,19,21,23,25,27,29,-1,-1,-1,-1,-1,-1,-1,-1,-1,-1,-1,-1,-1,-1,-1,-1],"loss_changes":[1.4654489E1,7.3894005E0,1.0450476E1,5.423128E0,5.5723896E0,2.8783674E0,1.15352E1,1.7098967E0,2.2843723E0,2.0372643E0,6.119358E0,2.680714E0,2.971489E0,6.1372337E0,7.4543953E0,0E0,0E0,0E0,0E0,0E0,0E0,0E0,0E0,0E0,0E0,0E0,0E0,0E0,0E0,0E0,0E0],"parents":[2147483647,0,0,1,1,2,2,3,3,4,4,5,5,6,6,7,7,8,8,9,9,10,10,11,11,12,12,13,13,14,14],"right_children":[2,4,6,8,10,12,14,16,18,20,22,24,26,28,30,-1,-1,-1,-1,-1,-1,-1,-1,-1,-1,-1,-1,-1,-1,-1,-1],"split_conditions":[2.66E2,2.5075815E0,-2.8770294E0,-3.7877042E0,5.207E0,-1.89044E2,2.8512943E0,-6.204531E-1,8.8E1,-7.2918135E-1,1.248026E0,7.38971E2,9.555348E-1,1.0733644E0,1.1112612E1,4.654064E-2,-1.4634453E-2,7.781197E-4,-4.814242E-2,1.4108093E-2,-5.566829E-2,-1.37181E-2,7.814079E-2,-4.5675438E-2,3.180277E-2,-1.0101478E-2,4.9541693E-2,1.1684089E-2,-2.5863482E-2,4.283635E-2,-2.8235053E-3],"split_indices":[13,5,5,5,12,12,5,2,6,2,10,11,10,10,3,0,0,0,0,0,0,0,0,0,0,0,0,0,0,0,0],"split_type":[0,0,0,0,0,0,0,0,0,0,0,0,0,0,0,0,0,0,0,0,0,0,0,0,0,0,0,0,0,0,0],"sum_hessian":[1.4640141E2,3.8281433E1,1.0811999E2,2.9221798E1,9.059636E0,2.5306545E1,8.281344E1,2.9894319E0,2.6232365E1,3.1066618E0,5.9529743E0,2.5076878E0,2.2798857E1,4.7311924E1,3.550152E1,1.6186795E0,1.3707523E0,2.6074514E0,2.3624914E1,1.0878205E0,2.0188413E0,2.724373E0,3.2286015E0,1.2575363E0,1.2501515E0,1.9706918E0,2.0828165E1,1.5593301E1,3.1718624E1,2.0300056E1,1.5201461E1],"tree_param":{"num_deleted":"0","num_feature":"14","num_nodes":"31","size_leaf_vector":"1"}},{"base_weights":[3.7297932E-3,-1.91757E-1,5.5416054E-1,5.2689517E-1,-3.503983E-1,6.4434254E-1,-4.548317E-2,-4.845731E-1,7.203394E-1,-4.25962E-1,7.8552014E-1,3.8199863E-1,1.0231239E0,1.6387533E-2,-5.1737256E-2,4.1708093E-2,-1.5748672E-2,-1.4896283E-2,-4.4090252E-2,8.568843E-3,4.5050774E-2,-2.0716025E-2,3.2438505E-2,7.6192725E-3,5.532158E-2],"categories":[],"categories_nodes":[],"categories_segments":[],"categories_sizes":[],"default_left":[0,0,0,0,0,0,0,0,0,0,0,0,0,0,0,0,0,0,0,0,0,0,0,0,0],"id":36,"left_children":[1,3,5,7,9,11,-1,13,15,17,19,21,23,-1,-1,-1,-1,-1,-1,-1,-1,-1,-1,-1,-1],"loss_changes":[1.5108083E1,1.1998587E1,5.443536E0,4.093608E0,7.672247E0,3.111557E0,0E0,1.9794766E0,2.2032928E0,4.453292E0,2.4873066E-1,5.031421E0,8.343544E-1,0E0,0E0,0E0,0E0,0E0,0E0,0E0,0E0,0E0,0E0,0E0,0E0],"parents":[2147483647,0,0,1,1,2,2,3,3,4,4,5,5,7,7,8,8,9,9,10,10,11,11,12,12],"right_children":[2,4,6,8,10,12,-1,14,16,18,20,22,24,-1,-1,-1,-1,-1,-1,-1,-1,-1,-1,-1,-1],"split_conditions":[9.05E2,-3.1583614E0,1.1146948E1,2.2655796E-7,4.183303E0,6.8159E1,-4.548317E-2,-4.5502906E0,8.727491E-1,1.6753688E0,1.0189486E0,3.0790197E-6,2.518706E0,1.6387533E-2,-5.1737256E-2,4.1708093E-2,-1.5748672E-2,-1.4896283E-2,-4.4090252E-2,8.568843E-3,4.5050774E-2,-2.0716025E-2,3.2438505E-2,7.6192725E-3,5.532158E-2],"split_indices":[13,5,3,8,5,12,0,5,2,10,10,7,5,0,0,0,0,0,0,0,0,0,0,0,0],"split_type":[0,0,0,0,0,0,0,0,0,0,0,0,0,0,0,0,0,0,0,0,0,0,0,0,0],"sum_hessian":[1.384196E2,1.0262405E2,3.5795547E1,1.8137785E1,8.448626E1,3.4245598E1,1.5499511E0,2.670336E0,1.5467448E1,7.980263E1,4.6836333E0,2.1419172E1,1.2826426E1,1.2415198E0,1.4288163E0,1.41104355E1,1.357013E0,6.3594025E1,1.6208605E1,1.1345476E0,3.5490859E0,5.236125E0,1.6183046E1,1.367056E0,1.145937E1],"tree_param":{"num_deleted":"0","num_feature":"14","num_nodes":"25","size_leaf_vector":"1"}},{"base_weights":[3.4913257E-2,-3.1685796E-1,3.9921522E-1,-3.9658047E-2,-8.6054873E-1,4.5158327E-2,7.78318E-1,-5.5657513E-2,6.143323E-2,-9.968455E-1,2.4942939E-1,-1.3686983E-1,7.715237E-1,8.4041905E-1,-1.915102E-2,-4.0088437E-2,1.0405276E-2,5.57113E-3,-5.2988496E-2,3.9959993E-2,-1.6279465E-2,-3.5993174E-2,4.6997513E-3,1.4449842E-2,4.7024585E-2,-2.3945093E-3,4.4303454E-2],"categories":[],"categories_nodes":[],"categories_segments":[],"categories_sizes":[],"default_left":[0,0,0,0,0,0,0,0,0,0,0,0,0,0,0,0,0,0,0,0,0,0,0,0,0,0,0],"id":37,"left_children":[1,3,5,7,9,11,13,-1,15,17,19,21,23,25,-1,-1,-1,-1,-1,-1,-1,-1,-1,-1,-1,-1,-1],"loss_changes":[1.8168787E1,1.0844809E1,9.307555E0,5.370393E0,3.9289742E0,5.0047297E0,2.7416878E0,0E0,5.9401555E0,1.6429977E0,1.3541203E0,4.1697288E0,3.4584808E-1,1.346653E0,0E0,0E0,0E0,0E0,0E0,0E0,0E0,0E0,0E0,0E0,0E0,0E0,0E0],"parents":[2147483647,0,0,1,1,2,2,3,3,4,4,5,5,6,6,8,8,9,9,10,10,11,11,12,12,13,13],"right_children":[2,4,6,8,10,12,14,-1,16,18,20,22,24,26,-1,-1,-1,-1,-1,-1,-1,-1,-1,-1,-1,-1,-1],"split_conditions":[2.8683815E0,2.64E2,1.26194E2,-9.438642E-1,2.773763E0,4.864535E0,1.1146948E1,-5.5657513E-2,2.0965447E0,2.8376615E0,-7.7041173E-1,3.741906E0,5.4961047E0,2.386782E0,-1.915102E-2,-4.0088437E-2,1.0405276E-2,5.57113E-3,-5.2988496E-2,3.9959993E-2,-1.6279465E-2,-3.5993174E-2,4.6997513E-3,1.4449842E-2,4.7024585E-2,-2.3945093E-3,4.4303454E-2],"split_indices":[4,6,11,2,4,4,3,0,4,9,2,9,4,9,0,0,0,0,0,0,0,0,0,0,0,0,0],"split_type":[0,0,0,0,0,0,0,0,0,0,0,0,0,0,0,0,0,0,0,0,0,0,0,0,0,0,0],"sum_hessian":[1.3978938E2,7.118405E1,6.860533E1,4.7857117E1,2.3326935E1,3.6053173E1,3.255216E1,3.2572212E0,4.4599895E1,2.0866602E1,2.4603338E0,2.9477612E1,6.5755606E0,3.1162138E1,1.3900181E0,5.828916E0,3.8770977E1,1.0796864E0,1.9786915E1,1.0584711E0,1.4018629E0,7.7609878E0,2.1716623E1,2.4083445E0,4.1672163E0,1.5207433E0,2.9641396E1],"tree_param":{"num_deleted":"0","num_feature":"14","num_nodes":"27","size_leaf_vector":"1"}},{"base_weights":[-7.295471E-3,-6.6660136E-1,1.3790545E-1,-8.981355E-1,6.016864E-1,1.9044237E-1,-9.903459E-1,2.6701665E-2,-1.0872661E0,-4.5912466E-3,4.4433214E-2,3.2401957E-2,6.1132044E-1,-6.9927685E-2,1.45021025E-2,-5.852293E-2,6.2068715E-3,2.8191064E-2,-7.864116E-3,-2.026123E-2,3.4214057E-2],"categories":[],"categories_nodes":[],"categories_segments":[],"categories_sizes":[],"default_left":[0,0,0,0,0,0,0,0,0,0,0,0,0,0,0,0,0,0,0,0,0],"id":38,"left_children":[1,3,5,7,9,11,13,-1,15,-1,-1,17,19,-1,-1,-1,-1,-1,-1,-1,-1],"loss_changes":[1.3044323E1,7.7615128E0,6.8100786E0,6.3218536E0,9.5630646E-1,7.135722E0,3.0877013E0,0E0,2.065405E0,0E0,0E0,8.078729E0,2.4512663E0,0E0,0E0,0E0,0E0,0E0,0E0,0E0,0E0],"parents":[2147483647,0,0,1,1,2,2,3,3,4,4,5,5,6,6,8,8,11,11,12,12],"right_children":[2,4,6,8,10,12,14,-1,16,-1,-1,18,20,-1,-1,-1,-1,-1,-1,-1,-1],"split_conditions":[4.0833288E-7,2.7153971E0,1.1146948E1,-4.5502906E0,1.07720755E-1,9.7E2,5.736806E0,2.6701665E-2,2.8893E1,-4.5912466E-3,4.4433214E-2,-2.6460986E0,-9.714169E-1,-6.9927685E-2,1.45021025E-2,-5.852293E-2,6.2068715E-3,2.8191064E-2,-7.864116E-3,-2.026123E-2,3.4214057E-2],"split_indices":[8,5,3,5,2,13,9,0,12,0,0,5,2,0,0,0,0,0,0,0,0],"split_type":[0,0,0,0,0,0,0,0,0,0,0,0,0,0,0,0,0,0,0,0,0],"sum_hessian":[1.3429874E2,2.3590727E1,1.10708015E2,2.0195719E1,3.3950074E0,1.065765E2,4.131519E0,2.1431732E0,1.8052546E1,1.1927155E0,2.202292E0,7.8264885E1,2.831161E1,3.0627701E0,1.0687486E0,1.6924093E1,1.1284534E0,2.006852E1,5.819637E1,1.5909698E0,2.6720638E1],"tree_param":{"num_deleted":"0","num_feature":"14","num_nodes":"21","size_leaf_vector":"1"}},{"base_weights":[6.0147453E-2,-1.9057862E-1,6.0541934E-1,-7.7449673E-1,-4.6271704E-2,2.879166E-1,8.0492836E-1,2.5739053E-2,-8.8510454E-1,-7.050423E-1,5.9317883E-2,4.4833645E-1,-5.2245863E-2,8.8927305E-1,-1.7670726E-2,-6.63518E-3,-4.8108764E-2,-4.3794774E-2,1.5421483E-3,1.3754924E-2,-8.048928E-3,3.6167055E-2,-8.552467E-3,4.592079E-2,6.57231E-3],"categories":[],"categories_nodes":[],"categories_segments":[],"categories_sizes":[],"default_left":[0,0,0,0,0,0,0,0,0,0,0,0,0,0,0,0,0,0,0,0,0,0,0,0,0],"id":39,"left_children":[1,3,5,7,9,11,13,-1,15,17,19,21,-1,23,-1,-1,-1,-1,-1,-1,-1,-1,-1,-1,-1],"loss_changes":[1.8038069E1,7.595374E0,2.3991156E0,3.0057983E0,5.167019E0,4.2281284E0,2.7517757E0,0E0,8.486948E-1,1.3164816E0,3.1067712E0,2.9162803E0,0E0,3.9915657E-1,0E0,0E0,0E0,0E0,0E0,0E0,0E0,0E0,0E0,0E0,0E0],"parents":[2147483647,0,0,1,1,2,2,3,3,4,4,5,5,6,6,8,8,9,9,10,10,11,11,13,13],"right_children":[2,4,6,8,10,12,14,-1,16,18,20,22,-1,24,-1,-1,-1,-1,-1,-1,-1,-1,-1,-1,-1],"split_conditions":[3.4570065E0,2.2315865E0,8.6177E1,-7.753E1,5.178911E-7,7.7088E1,1.1146948E1,2.5739053E-2,-9.3995047E-1,3.5812E1,1.8308862E-6,1.1117034E1,-5.2245863E-2,2.5784411E0,-1.7670726E-2,-6.63518E-3,-4.8108764E-2,-4.3794774E-2,1.5421483E-3,1.3754924E-2,-8.048928E-3,3.6167055E-2,-8.552467E-3,4.592079E-2,6.57231E-3],"split_indices":[4,4,11,12,7,11,3,0,2,11,7,3,0,10,0,0,0,0,0,0,0,0,0,0,0],"split_type":[0,0,0,0,0,0,0,0,0,0,0,0,0,0,0,0,0,0,0,0,0,0,0,0,0],"sum_hessian":[1.3009634E2,8.956377E1,4.053258E1,1.6882805E1,7.268096E1,1.6583843E1,2.394874E1,1.045226E0,1.5837579E1,9.255976E0,6.3424984E1,1.5394573E1,1.1892686E0,2.2539793E1,1.4089459E0,1.7244562E0,1.4113122E1,7.3574986E0,1.8984774E0,3.1915224E1,3.1509758E1,1.0544863E1,4.849711E0,2.1501049E1,1.0387447E0],"tree_param":{"num_deleted":"0","num_feature":"14","num_nodes":"25","size_leaf_vector":"1"}},{"base_weights":[-8.9071476E-4,-3.6115387E-1,2.3839173E-1,-5.410165E-2,-6.581145E-1,6.764783E-1,1.1588792E-1,-5.423212E-1,2.0124073E-1,-8.643074E-1,4.5674127E-1,-2.5972566E-2,7.9222965E-1,-1.24280915E-1,6.652108E-1,1.2348727E-2,-4.3052103E-2,-2.8571978E-2,2.5080908E-2,2.3883963E-2,-5.0146658E-2,-2.2160672E-2,5.4492373E-2,5.5537494E-3,4.8119284E-2,1.687835E-2,-1.6763924E-2,-1.2947571E-2,4.1079637E-2],"categories":[],"categories_nodes":[],"categories_segments":[],"categories_sizes":[],"default_left":[0,0,0,0,0,0,0,0,0,0,0,0,0,0,0,0,0,0,0,0,0,0,0,0,0,0,0,0,0],"id":40,"left_children":[1,3,5,7,9,11,13,15,17,19,21,-1,23,25,27,-1,-1,-1,-1,-1,-1,-1,-1,-1,-1,-1,-1,-1,-1],"loss_changes":[1.1498536E1,4.818436E0,4.2232156E0,3.507712E0,6.595045E0,2.8076038E0,8.505685E0,2.6358693E0,4.6104746E0,4.777981E0,3.2544818E0,0E0,1.7681131E0,4.5242085E0,3.0424042E0,0E0,0E0,0E0,0E0,0E0,0E0,0E0,0E0,0E0,0E0,0E0,0E0,0E0,0E0],"parents":[2147483647,0,0,1,1,2,2,3,3,4,4,5,5,6,6,7,7,8,8,9,9,10,10,12,12,13,13,14,14],"right_children":[2,4,6,8,10,12,14,16,18,20,22,-1,24,26,28,-1,-1,-1,-1,-1,-1,-1,-1,-1,-1,-1,-1,-1,-1],"split_conditions":[3.88E2,1.3466605E0,-2.8770294E0,3.6626966E0,3.1398942E0,6.4534E1,6.605E1,3.0022616E0,1.129649E0,-4.5502906E0,2.056E0,-2.5972566E-2,1.106426E1,8.5171E1,2.3951328E0,1.2348727E-2,-4.3052103E-2,-2.8571978E-2,2.5080908E-2,2.3883963E-2,-5.0146658E-2,-2.2160672E-2,5.4492373E-2,5.5537494E-3,4.8119284E-2,1.687835E-2,-1.6763924E-2,-1.2947571E-2,4.1079637E-2],"split_indices":[13,10,5,9,5,11,12,9,10,5,12,0,3,11,5,0,0,0,0,0,0,0,0,0,0,0,0,0,0],"split_type":[0,0,0,0,0,0,0,0,0,0,0,0,0,0,0,0,0,0,0,0,0,0,0,0,0,0,0,0,0],"sum_hessian":[1.3138776E2,5.2234413E1,7.915334E1,2.6262068E1,2.5972345E1,1.6308899E1,6.2844448E1,8.632556E0,1.762951E1,2.2108168E1,3.8641768E0,1.1314315E0,1.5177467E1,4.4265106E1,1.8579342E1,2.5479054E0,6.0846505E0,4.6823626E0,1.2947149E1,1.8409319E0,2.0267237E1,1.7196493E0,2.1445274E0,3.363952E0,1.1813515E1,1.3692981E1,3.0572124E1,2.5939736E0,1.5985368E1],"tree_param":{"num_deleted":"0","num_feature":"14","num_nodes":"29","size_leaf_vector":"1"}},{"base_weights":[-1.645682E-2,-1.6928162E-1,4.8375207E-1,-2.2844584E-1,8.124304E-1,5.7455194E-1,-2.93231E-2,-1.0038651E-1,-7.3263377E-1,5.4940805E-3,4.6715323E-2,2.4738413E-1,7.237645E-1,2.1268483E-2,-1.2316993E-2,3.256631E-2,-4.3017074E-2,3.892115E-2,-2.8857965E-2,-2.2938212E-3,4.1750647E-2],"categories":[],"categories_nodes":[],"categories_segments":[],"categories_sizes":[],"default_left":[0,0,0,0,0,0,0,0,0,0,0,0,0,0,0,0,0,0,0,0,0],"id":41,"left_children":[1,3,5,7,9,11,-1,13,15,-1,-1,17,19,-1,-1,-1,-1,-1,-1,-1,-1],"loss_changes":[1.0164159E1,6.0963783E0,3.3614922E0,6.173975E0,4.1141558E-1,1.2462053E0,0E0,6.1148834E0,3.996231E0,0E0,0E0,5.1186476E0,1.7106276E0,0E0,0E0,0E0,0E0,0E0,0E0,0E0,0E0],"parents":[2147483647,0,0,1,1,2,2,3,3,4,4,5,5,7,7,8,8,11,11,12,12],"right_children":[2,4,6,8,10,12,-1,14,16,-1,-1,18,20,-1,-1,-1,-1,-1,-1,-1,-1],"split_conditions":[9.7E2,4.183303E0,1.1146948E1,1.6753688E0,3.523456E0,3.0790197E-6,-2.93231E-2,-2.8770294E0,-5.6038675E0,5.4940805E-3,4.6715323E-2,1.6490005E-6,9.2598116E-1,2.1268483E-2,-1.2316993E-2,3.256631E-2,-4.3017074E-2,3.892115E-2,-2.8857965E-2,-2.2938212E-3,4.1750647E-2],"split_indices":[13,5,3,10,9,7,0,5,5,0,0,8,10,0,0,0,0,0,0,0,0],"split_type":[0,0,0,0,0,0,0,0,0,0,0,0,0,0,0,0,0,0,0,0,0],"sum_hessian":[1.3089034E2,1.0076576E2,3.0124575E1,9.576185E1,5.00392E0,2.8195534E1,1.9290423E0,7.732187E1,1.8439974E1,1.0208519E0,3.983068E0,9.663966E0,1.8531567E1,1.6385015E1,6.0936855E1,1.2114496E0,1.7228525E1,5.9122047E0,3.7517617E0,2.4145827E0,1.6116983E1],"tree_param":{"num_deleted":"0","num_feature":"14","num_nodes":"21","size_leaf_vector":"1"}},{"base_weights":[2.5914425E-3,-1.9560571E-1,6.5068716E-1,-6.728486E-1,-4.5359552E-2,8.253441E-1,3.1472164E-1,-9.382183E-1,-1.4541987E-1,7.082499E-2,-9.759687E-2,8.9600134E-1,-8.2456125E-3,-1.0893271E-1,4.6831537E-2,-4.3912083E-3,-5.171564E-2,-2.9770121E-2,3.2907736E-2,-2.5007883E-2,5.9241685E-3,4.70227E-2,3.2994344E-3,3.138448E-2,-5.0587352E-2],"categories":[],"categories_nodes":[],"categories_segments":[],"categories_sizes":[],"default_left":[0,0,0,0,0,0,0,0,0,0,0,0,0,0,0,0,0,0,0,0,0,0,0,0,0],"id":42,"left_children":[1,3,5,7,9,11,13,15,17,-1,19,21,-1,23,-1,-1,-1,-1,-1,-1,-1,-1,-1,-1,-1],"loss_changes":[1.6853085E1,7.174705E0,1.54321E0,3.2210197E0,6.0562534E0,1.519144E0,3.2969472E0,1.198286E0,3.7231789E0,0E0,6.6492386E0,6.1867714E-1,0E0,6.0274906E0,0E0,0E0,0E0,0E0,0E0,0E0,0E0,0E0,0E0,0E0,0E0],"parents":[2147483647,0,0,1,1,2,2,3,3,4,4,5,5,6,6,7,7,8,8,10,10,11,11,13,13],"right_children":[2,4,6,8,10,12,14,16,18,-1,20,22,-1,24,-1,-1,-1,-1,-1,-1,-1,-1,-1,-1,-1],"split_conditions":[3.7877042E0,2.2978652E0,1.1113723E1,4.88E2,2.3029737E0,1.32E3,1.27E3,-9.3995047E-1,2.0147502E-1,7.082499E-2,-2.8113505E-1,8.215103E-1,-8.2456125E-3,1.7548201E-6,4.6831537E-2,-4.3912083E-3,-5.171564E-2,-2.9770121E-2,3.2907736E-2,-2.5007883E-2,5.9241685E-3,4.70227E-2,3.2994344E-3,3.138448E-2,-5.0587352E-2],"split_indices":[4,4,3,13,4,6,13,2,2,0,2,2,0,8,0,0,0,0,0,0,0,0,0,0,0],"split_type":[0,0,0,0,0,0,0,0,0,0,0,0,0,0,0,0,0,0,0,0,0,0,0,0,0],"sum_hessian":[1.2921184E2,9.948581E1,2.972603E1,2.2988064E1,7.649774E1,1.8599932E1,1.1126099E1,1.4775226E1,8.212838E0,1.7381815E0,7.475957E1,1.7450014E1,1.1499187E0,7.10851E0,4.0175886E0,1.6944052E0,1.308082E1,5.4307857E0,2.7820528E0,2.5652983E1,4.9106583E1,1.6436663E1,1.0133519E0,4.082371E0,3.0261383E0],"tree_param":{"num_deleted":"0","num_feature":"14","num_nodes":"25","size_leaf_vector":"1"}},{"base_weights":[1.6598994E-2,-7.0355344E-1,1.6464563E-1,-5.2028675E-2,-5.6783404E-2,5.6113165E-2,8.25312E-1,5.1674444E-2,-4.0939647E-1,1.5902829E-1,-6.553411E-1,4.621734E-1,9.4417936E-1,-3.7887484E-2,2.1399483E-2,7.220692E-2,5.7606935E-3,-4.0820245E-2,2.191818E-2,4.2434808E-2,-1.6621856E-2,1.3908065E-2,5.0958093E-2],"categories":[],"categories_nodes":[],"categories_segments":[],"categories_sizes":[],"default_left":[0,0,0,0,0,0,0,0,0,0,0,0,0,0,0,0,0,0,0,0,0,0,0],"id":43,"left_children":[1,3,5,-1,7,9,11,-1,13,15,17,19,21,-1,-1,-1,-1,-1,-1,-1,-1,-1,-1],"loss_changes":[1.4062269E1,4.8443604E0,7.79193E0,0E0,3.7924063E0,7.0573635E0,2.2625923E-1,0E0,2.465016E0,4.5502305E0,2.5063105E0,2.0464993E0,2.4619293E-1,0E0,0E0,0E0,0E0,0E0,0E0,0E0,0E0,0E0,0E0],"parents":[2147483647,0,0,1,1,2,2,4,4,5,5,6,6,8,8,9,9,10,10,11,11,12,12],"right_children":[2,4,6,-1,8,10,12,-1,14,16,18,20,22,-1,-1,-1,-1,-1,-1,-1,-1,-1,-1],"split_conditions":[2.2978652E0,1.3449172E-6,4.864535E0,-5.2028675E-2,-2.1809697E0,1.9401122E0,5.4961047E0,5.1674444E-2,1.76E2,2.3029737E0,4.027347E0,5.3171887E0,-9.6725E1,-3.7887484E-2,2.1399483E-2,7.220692E-2,5.7606935E-3,-4.0820245E-2,2.191818E-2,4.2434808E-2,-1.6621856E-2,1.3908065E-2,5.0958093E-2],"split_indices":[4,8,4,0,5,10,4,0,6,4,10,4,12,0,0,0,0,0,0,0,0,0,0],"split_type":[0,0,0,0,0,0,0,0,0,0,0,0,0,0,0,0,0,0,0,0,0,0,0],"sum_hessian":[1.2980975E2,2.149552E1,1.0831423E2,1.3731441E1,7.7640786E0,9.396316E1,1.4351075E1,1.4255047E0,6.338574E0,8.2767E1,1.1196154E1,4.744577E0,9.606498E0,4.543554E0,1.7950203E0,1.6750875E0,8.109191E1,9.979997E0,1.2161568E0,3.1461353E0,1.5984417E0,1.448667E0,8.157831E0],"tree_param":{"num_deleted":"0","num_feature":"14","num_nodes":"23","size_leaf_vector":"1"}},{"base_weights":[-3.031088E-2,-3.306994E-1,1.7871258E-1,-6.4350444E-1,-1.375596E-1,3.4725738E-1,-2.4418855E-1,-9.282795E-1,-1.8933852E-1,2.381548E-1,-3.5880357E-1,-5.795084E-2,6.834657E-1,-8.122071E-2,-3.7306806E-3,-1.702136E-2,-5.289234E-2,-4.047721E-2,1.9610105E-2,2.361329E-2,-2.8102288E-2,-7.0611225E-3,-3.7718803E-2,-1.5891522E-2,2.5911314E-2,6.21214E-2,2.0997602E-2,-2.581285E-2,1.8620485E-2],"categories":[],"categories_nodes":[],"categories_segments":[],"categories_sizes":[],"default_left":[0,0,0,0,0,0,0,0,0,0,0,0,0,0,0,0,0,0,0,0,0,0,0,0,0,0,0,0,0],"id":44,"left_children":[1,3,5,7,9,11,13,15,17,19,21,23,25,-1,27,-1,-1,-1,-1,-1,-1,-1,-1,-1,-1,-1,-1,-1,-1],"loss_changes":[7.9946976E0,3.065763E0,5.44321E0,2.3668242E0,2.8743882E0,7.418915E0,7.298832E0,5.40658E-1,3.5031352E0,2.707506E0,1.745286E0,3.9806693E0,3.850194E0,0E0,3.9991066E0,0E0,0E0,0E0,0E0,0E0,0E0,0E0,0E0,0E0,0E0,0E0,0E0,0E0,0E0],"parents":[2147483647,0,0,1,1,2,2,3,3,4,4,5,5,6,6,7,7,8,8,9,9,10,10,11,11,12,12,14,14],"right_children":[2,4,6,8,10,12,14,16,18,20,22,24,26,-1,28,-1,-1,-1,-1,-1,-1,-1,-1,-1,-1,-1,-1,-1,-1],"split_conditions":[4.17E2,4.1108234E-7,1.1117034E1,2.1857648E-1,9.569302E-7,1.108004E1,1.111852E1,-1.1639E1,3.993E0,6.141086E0,4.7207E1,1.093E3,8.3537E1,-8.122071E-2,1.5126E2,-1.702136E-2,-5.289234E-2,-4.047721E-2,1.9610105E-2,2.361329E-2,-2.8102288E-2,-7.0611225E-3,-3.7718803E-2,-1.5891522E-2,2.5911314E-2,6.21214E-2,2.0997602E-2,-2.581285E-2,1.8620485E-2],"split_indices":[13,8,3,2,7,3,3,12,12,9,11,13,11,0,11,0,0,0,0,0,0,0,0,0,0,0,0,0,0],"split_type":[0,0,0,0,0,0,0,0,0,0,0,0,0,0,0,0,0,0,0,0,0,0,0,0,0,0,0,0,0],"sum_hessian":[1.2538667E2,5.121018E1,7.417649E1,1.865887E1,3.2551308E1,5.3166256E1,2.1010237E1,1.0826452E1,7.8324184E0,1.2035797E1,2.051551E1,2.4484476E1,2.868178E1,2.2633169E0,1.874692E1,2.6103935E0,8.216059E0,3.6004822E0,4.231936E0,9.628613E0,2.4071836E0,1.4110928E1,6.404583E0,1.7182735E1,7.3017406E0,7.999173E0,2.0682606E1,7.7772207E0,1.0969699E1],"tree_param":{"num_deleted":"0","num_feature":"14","num_nodes":"29","size_leaf_vector":"1"}},{"base_weights":[-1.2899837E-2,-1.8597148E-1,5.5047846E-1,-5.0342243E-2,-9.1630235E-2,6.16621E-1,-3.2375835E-2,6.316676E-2,-5.1079875E-1,-1.971525E-1,7.819291E-1,-1.5815679E-2,1.3159062E-2,-4.5071192E-2,2.8502995E-3,-4.502845E-2,3.7001442E-2,-2.4931097E-2,4.463416E-2],"categories":[],"categories_nodes":[],"categories_segments":[],"categories_sizes":[],"default_left":[0,0,0,0,0,0,0,0,0,0,0,0,0,0,0,0,0,0,0],"id":45,"left_children":[1,3,5,-1,7,9,-1,11,13,15,17,-1,-1,-1,-1,-1,-1,-1,-1],"loss_changes":[1.2492165E1,7.49351E0,2.785512E0,0E0,5.8043194E0,4.0622234E0,0E0,5.0817714E0,5.397064E0,4.4264493E0,3.8982353E0,0E0,0E0,0E0,0E0,0E0,0E0,0E0,0E0],"parents":[2147483647,0,0,1,1,2,2,4,4,5,5,7,7,8,8,9,9,10,10],"right_children":[2,4,6,-1,8,10,-1,12,14,16,18,-1,-1,-1,-1,-1,-1,-1,-1],"split_conditions":[3.7877042E0,2.1242352E0,1.1146948E1,-5.0342243E-2,3.08E2,-7.275958E-12,-3.2375835E-2,-2.725524E-1,2.84691E0,4.696958E0,4.013954E-7,-1.5815679E-2,1.3159062E-2,-4.5071192E-2,2.8502995E-3,-4.502845E-2,3.7001442E-2,-2.4931097E-2,4.463416E-2],"split_indices":[4,4,3,0,6,1,0,2,4,4,7,0,0,0,0,0,0,0,0],"split_type":[0,0,0,0,0,0,0,0,0,0,0,0,0,0,0,0,0,0,0],"sum_hessian":[1.26068535E2,9.695389E1,2.911465E1,8.997066E0,8.795682E1,2.8051203E1,1.0634478E0,6.485535E1,2.3101475E1,4.703638E0,2.3347565E1,2.2184338E1,4.267101E1,1.333797E1,9.763505E0,2.7092404E0,1.9943978E0,1.5797898E0,2.1767775E1],"tree_param":{"num_deleted":"0","num_feature":"14","num_nodes":"19","size_leaf_vector":"1"}},{"base_weights":[-1.9299458E-3,-3.7639403E-1,2.2792688E-1,-6.553142E-1,1.7533861E-2,2.8452563E-1,-8.237614E-1,2.3761158E-1,-9.0471095E-1,9.8080367E-1,-2.1392027E-1,3.5218945E-1,-5.463547E-1,-6.305637E-2,1.5293777E-2,-2.025049E-2,2.8171381E-2,-5.0496746E-2,-1.01178065E-2,-2.785482E-3,7.115687E-2,-4.0518235E-2,1.5389876E-2,2.6634613E-3,2.5810746E-2,-5.18545E-2,2.3700574E-2],"categories":[],"categories_nodes":[],"categories_segments":[],"categories_sizes":[],"default_left":[0,0,0,0,0,0,0,0,0,0,0,0,0,0,0,0,0,0,0,0,0,0,0,0,0,0,0],"id":46,"left_children":[1,3,5,7,9,11,13,15,17,19,21,23,25,-1,-1,-1,-1,-1,-1,-1,-1,-1,-1,-1,-1,-1,-1],"loss_changes":[1.1061005E1,5.3817616E0,4.97453E0,6.5932093E0,4.9442186E0,4.4826317E0,2.5218494E0,1.703273E0,1.4656029E0,2.0475197E0,5.832571E0,3.4621E0,3.5652823E0,0E0,0E0,0E0,0E0,0E0,0E0,0E0,0E0,0E0,0E0,0E0,0E0,0E0,0E0],"parents":[2147483647,0,0,1,1,2,2,3,3,4,4,5,5,6,6,7,7,8,8,9,9,10,10,11,11,12,12],"right_children":[2,4,6,8,10,12,14,16,18,20,22,24,26,-1,-1,-1,-1,-1,-1,-1,-1,-1,-1,-1,-1,-1,-1],"split_conditions":[3.88E2,2.2970822E0,1.1146948E1,-3.7877042E0,1.21E2,5.72E2,5.6367927E0,2.04E2,3.32E2,9.162E0,9.914E0,1.1080353E1,3.1937654E0,-6.305637E-2,1.5293777E-2,-2.025049E-2,2.8171381E-2,-5.0496746E-2,-1.01178065E-2,-2.785482E-3,7.115687E-2,-4.0518235E-2,1.5389876E-2,2.6634613E-3,2.5810746E-2,-5.18545E-2,2.3700574E-2],"split_indices":[13,5,3,5,13,6,9,13,13,11,12,3,5,0,0,0,0,0,0,0,0,0,0,0,0,0,0],"split_type":[0,0,0,0,0,0,0,0,0,0,0,0,0,0,0,0,0,0,0,0,0,0,0,0,0,0,0],"sum_hessian":[1.2651035E2,4.7876434E1,7.863392E1,2.764142E1,2.0235012E1,7.5310394E1,3.323524E0,6.04511E0,2.159631E1,3.2929177E0,1.6942095E1,7.0171974E1,5.1384215E0,2.3119836E0,1.0115407E0,1.9520109E0,4.0930996E0,1.8401539E1,3.1947706E0,1.2463713E0,2.0465465E0,7.646784E0,9.295311E0,2.5331879E1,4.4840096E1,3.4586344E0,1.6797868E0],"tree_param":{"num_deleted":"0","num_feature":"14","num_nodes":"27","size_leaf_vector":"1"}},{"base_weights":[2.8433265E-2,-7.811774E-2,8.6026734E-1,-3.771091E-1,1.4135006E-1,4.2938414E-1,5.0581127E-2,-5.9300023E-1,-1.3503995E-2,2.1048324E-1,-6.1975982E-2,4.1561283E-2,-2.0426212E-2,-4.8004467E-2,-1.4111675E-2,-5.314957E-2,1.1766936E-2,4.2637993E-2,4.751518E-3],"categories":[],"categories_nodes":[],"categories_segments":[],"categories_sizes":[],"default_left":[0,0,0,0,0,0,0,0,0,0,0,0,0,0,0,0,0,0,0],"id":47,"left_children":[1,3,5,7,9,11,-1,13,15,17,-1,-1,-1,-1,-1,-1,-1,-1,-1],"loss_changes":[1.1212297E1,7.427792E0,5.022116E-1,3.7478156E0,6.517413E0,2.1816032E0,0E0,3.1510992E0,5.172482E0,4.6104646E0,0E0,0E0,0E0,0E0,0E0,0E0,0E0,0E0,0E0],"parents":[2147483647,0,0,1,1,2,2,3,3,4,4,5,5,7,7,8,8,9,9],"right_children":[2,4,6,8,10,12,-1,14,16,18,-1,-1,-1,-1,-1,-1,-1,-1,-1],"split_conditions":[4.864535E0,4.2E2,5.4961047E0,2.9775946E0,2.2476099E0,5.3171887E0,5.0581127E-2,4.4036847E-7,1.1411717E0,8.1415595E-7,-6.1975982E-2,4.1561283E-2,-2.0426212E-2,-4.8004467E-2,-1.4111675E-2,-5.314957E-2,1.1766936E-2,4.2637993E-2,4.751518E-3],"split_indices":[4,13,4,4,10,4,0,8,10,8,0,0,0,0,0,0,0,0,0],"split_type":[0,0,0,0,0,0,0,0,0,0,0,0,0,0,0,0,0,0,0],"sum_hessian":[1.2474466E2,1.1138345E2,1.3361202E1,4.6845425E1,6.453803E1,4.4707236E0,8.890479E0,2.8997326E1,1.78481E1,6.226815E1,2.2698798E0,3.0270133E0,1.4437101E0,1.2336078E1,1.666125E1,2.7937586E0,1.5054341E1,8.514557E0,5.3753593E1],"tree_param":{"num_deleted":"0","num_feature":"14","num_nodes":"19","size_leaf_vector":"1"}},{"base_weights":[4.3644056E-2,-1.6033413E-1,3.336292E-1,-4.332526E-2,-8.1474334E-2,1.0142891E0,2.1260172E-1,-4.05899E-1,6.562531E-2,1.1950662E0,-1.9738337E-3,-7.3505616E-1,3.1793308E-1,7.886484E-3,-3.0986642E-2,1.0045531E-2,-3.1301748E-2,1.2225452E-2,6.701117E-2,2.4592565E-4,-4.8239388E-2,-3.4980305E-2,1.849841E-2],"categories":[],"categories_nodes":[],"categories_segments":[],"categories_sizes":[],"default_left":[0,0,0,0,0,0,0,0,0,0,0,0,0,0,0,0,0,0,0,0,0,0,0],"id":48,"left_children":[1,3,5,-1,7,9,11,13,15,17,-1,19,21,-1,-1,-1,-1,-1,-1,-1,-1,-1,-1],"loss_changes":[7.2879033E0,3.9654517E0,3.9716125E0,0E0,3.190597E0,1.4584355E0,4.6677265E0,2.6072967E0,4.474662E0,5.4923344E-1,0E0,8.1144404E-1,2.412517E0,0E0,0E0,0E0,0E0,0E0,0E0,0E0,0E0,0E0,0E0],"parents":[2147483647,0,0,1,1,2,2,4,4,5,5,6,6,7,7,8,8,9,9,11,11,12,12],"right_children":[2,4,6,-1,8,10,12,14,16,18,-1,20,22,-1,-1,-1,-1,-1,-1,-1,-1,-1,-1],"split_conditions":[5.89E2,1.1825E1,7.9796104E-7,-4.332526E-2,3.7896593E0,2.075757E0,1.2297397E-6,3.0022616E0,1.1124318E1,6.4E2,-1.9738337E-3,1.1360024E0,8.768873E-1,7.886484E-3,-3.0986642E-2,1.0045531E-2,-3.1301748E-2,1.2225452E-2,6.701117E-2,2.4592565E-4,-4.8239388E-2,-3.4980305E-2,1.849841E-2],"split_indices":[13,11,8,0,9,10,8,9,3,13,0,10,10,0,0,0,0,0,0,0,0,0,0],"split_type":[0,0,0,0,0,0,0,0,0,0,0,0,0,0,0,0,0,0,0,0,0,0,0],"sum_hessian":[1.21304855E2,7.1475464E1,4.982939E1,6.1766934E0,6.529877E1,6.408313E0,4.3421078E1,1.9822153E1,4.5476616E1,5.355473E0,1.05284E0,3.7454104E0,3.967567E1,5.524062E0,1.429809E1,3.8630253E1,6.8463616E0,1.0651051E0,4.2903676E0,1.1191556E0,2.6262548E0,1.3247852E0,3.8350883E1],"tree_param":{"num_deleted":"0","num_feature":"14","num_nodes":"23","size_leaf_vector":"1"}},{"base_weights":[-2.343857E-2,-1.2106805E-1,8.109319E-1,-8.961245E-1,-3.634534E-2,4.6335515E-2,-1.2573624E-2,-5.394244E-2,2.0798229E-2,-4.1700956E-1,1.0409514E-1,-2.6345406E-2,2.9084703E-2,-4.9266533E-4,3.20674E-2],"categories":[],"categories_nodes":[],"categories_segments":[],"categories_sizes":[],"default_left":[0,0,0,0,0,0,0,0,0,0,0,0,0,0,0],"id":49,"left_children":[1,3,5,7,9,-1,-1,-1,-1,11,13,-1,-1,-1,-1],"loss_changes":[1.0310023E1,7.394107E0,1.864296E0,3.110612E0,5.549702E0,0E0,0E0,0E0,0E0,3.375062E0,4.661365E0,0E0,0E0,0E0,0E0],"parents":[2147483647,0,0,1,1,2,2,3,3,4,4,9,9,10,10],"right_children":[2,4,6,8,10,-1,-1,-1,-1,12,14,-1,-1,-1,-1],"split_conditions":[4.864535E0,1.5662E1,1.1141832E1,2.865072E0,2.4488552E0,4.6335515E-2,-1.2573624E-2,-5.394244E-2,2.0798229E-2,5.139595E-6,6.3634E1,-2.6345406E-2,2.9084703E-2,-4.9266533E-4,3.20674E-2],"split_indices":[4,11,3,5,4,0,0,0,0,8,12,0,0,0,0],"split_type":[0,0,0,0,0,0,0,0,0,0,0,0,0,0,0],"sum_hessian":[1.2436153E2,1.1209967E2,1.2261856E1,1.0102579E1,1.0199709E2,1.1172073E1,1.0897831E0,9.0236845E0,1.0788944E0,2.6958023E1,7.503907E1,2.4711182E1,2.2468407E0,6.271848E1,1.2320593E1],"tree_param":{"num_deleted":"0","num_feature":"14","num_nodes":"15","size_leaf_vector":"1"}},{"base_weights":[-4.5773652E-3,-5.190783E-1,1.0128301E-1,2.4915896E-1,-6.921825E-1,1.4740358E-1,-1.0862224E0,8.306339E-1,-3.3921298E-2,3.388836E-2,-8.473004E-1,-6.7905732E-3,5.5261636E-1,-6.583436E-2,-1.137695E-2,-2.6909146E-3,6.2263012E-2,-5.0893635E-2,-1.9413471E-2,1.8622287E-2,-8.521157E-3,-1.8137919E-2,3.127495E-2],"categories":[],"categories_nodes":[],"categories_segments":[],"categories_sizes":[],"default_left":[0,0,0,0,0,0,0,0,0,0,0,0,0,0,0,0,0,0,0,0,0,0,0],"id":50,"left_children":[1,3,5,7,9,11,13,15,-1,-1,17,19,21,-1,-1,-1,-1,-1,-1,-1,-1,-1,-1],"loss_changes":[6.7217727E0,2.9729023E0,5.767875E0,3.0487897E0,4.2825775E0,6.2170897E0,4.8159218E-1,1.2705269E0,0E0,0E0,8.669567E-1,4.594789E0,2.0563908E0,0E0,0E0,0E0,0E0,0E0,0E0,0E0,0E0,0E0,0E0],"parents":[2147483647,0,0,1,1,2,2,3,3,4,4,5,5,6,6,7,7,10,10,11,11,12,12],"right_children":[2,4,6,8,10,12,14,16,-1,-1,18,20,22,-1,-1,-1,-1,-1,-1,-1,-1,-1,-1],"split_conditions":[1.95E2,1.1540426E0,1.1146948E1,2.64E2,8.8E1,9.7E2,4.7806063E0,8.462636E-7,-3.3921298E-2,3.388836E-2,5.72E2,1.0653544E-6,-9.714169E-1,-6.583436E-2,-1.137695E-2,-2.6909146E-3,6.2263012E-2,-5.0893635E-2,-1.9413471E-2,1.8622287E-2,-8.521157E-3,-1.8137919E-2,3.127495E-2],"split_indices":[13,10,3,6,6,13,9,7,0,0,6,7,2,0,0,0,0,0,0,0,0,0,0],"split_type":[0,0,0,0,0,0,0,0,0,0,0,0,0,0,0,0,0,0,0,0,0,0,0],"sum_hessian":[1.21448685E2,2.0058287E1,1.01390396E2,3.6077437E0,1.6450542E1,9.844292E1,2.9474752E0,2.2818444E0,1.3258995E0,1.3305144E0,1.5120028E1,7.202047E1,2.642245E1,1.9032714E0,1.0442039E0,1.0060369E0,1.2758075E0,1.0136096E1,4.9839315E0,2.1323898E1,5.069657E1,1.6552978E0,2.476715E1],"tree_param":{"num_deleted":"0","num_feature":"14","num_nodes":"23","size_leaf_vector":"1"}},{"base_weights":[1.935059E-2,-7.6383844E-2,7.768287E-1,-5.708673E-1,3.4148645E-2,8.683091E-1,-5.2332794E-3,1.6342688E-1,-7.5618494E-1,6.4207666E-2,-5.106755E-3,3.5952815E-1,4.880884E-2,-3.1320255E-2,2.8426697E-2,-4.1713174E-2,1.0295341E-2,-4.8907824E-2,2.017342E-3,3.4662765E-2,-1.0641394E-2],"categories":[],"categories_nodes":[],"categories_segments":[],"categories_sizes":[],"default_left":[0,0,0,0,0,0,0,0,0,0,0,0,0,0,0,0,0,0,0,0,0],"id":51,"left_children":[1,3,5,7,9,11,-1,13,15,-1,17,19,-1,-1,-1,-1,-1,-1,-1,-1,-1],"loss_changes":[8.986683E0,6.042892E0,1.2119913E0,2.8710046E0,4.472589E0,3.4619904E-1,0E0,1.9210707E0,1.3961535E0,0E0,3.9863968E0,8.7436783E-1,0E0,0E0,0E0,0E0,0E0,0E0,0E0,0E0,0E0],"parents":[2147483647,0,0,1,1,2,2,3,3,4,4,5,5,7,7,8,8,10,10,11,11],"right_children":[2,4,6,8,10,12,-1,14,16,-1,18,20,-1,-1,-1,-1,-1,-1,-1,-1,-1],